tree
version=v3
num_class=1
num_tree_per_iteration=1
label_index=0
max_feature_idx=16
objective=regression
feature_names=gender hypertension heart_disease ever_married Residence_type smoking_status_Unknown smoking_status_formerly_smoked smoking_status_never_smoked smoking_status_smokes work_type_Govt_job work_type_Never_worked work_type_Private work_type_Self-employed work_type_children avg_glucose_level bmi age
feature_infos=[0:1] [0:1] [0:1] [0:1] [0:1] [0:1] [0:1] [0:1] [0:1] [0:1] [0:1] [0:1] [0:1] [0:1] [-1.1269580083887039:3.6571446126450251] [-2.4155642265589941:8.9261272701393963] [-1.9082612226581039:1.7148448133324841]
tree_sizes=23642 24103 24178 24263 24040 24460 24312 24330 24393 24517 24433 24061 24513 24550 24568 24823 24710 24551 24767 25050 25331 25137 25276 24970 25150 25226 25184 25327 25208 25249 25381 25323 25381 25343 25452 25421 25490 25273 25471 25727 25712 25436 25358 25529 25566 25709 25808 25659 25588 25632 25653 25561 25715 25736 25612 25749 26001 11927 26021 26021 25910 25913 25990 25917 25707 26123 25759 25806 25592 25533 25673 25994 26014 13241 25920 25895 25861 26051 26160 25748 26136 25832 25607 25975 25901 26016 26006 26004 26016 26293 25529 25890 25909 25799 26114 26226 25924 25846 25783 26052

Tree=0
num_leaves=253
num_cat=0
split_feature=16 16 16 7 14 14 1 3 16 16 14 14 14 16 14 14 14 9 14 16 14 14 14 14 14 14 14 16 16 16 16 14 14 7 14 14 6 14 7 14 16 14 16 1 16 14 9 16 14 16 6 14 14 14 16 1 12 14 14 14 14 14 16 5 14 16 16 9 6 9 14 14 16 16 14 14 12 14 14 14 1 14 12 14 14 12 14 14 14 16 9 16 14 16 6 14 14 12 16 14 14 14 14 16 16 12 6 16 14 14 14 14 14 14 16 14 3 14 14 14 16 16 16 16 9 6 12 1 16 5 6 14 14 14 14 14 16 16 14 14 12 14 14 14 7 1 6 1 12 3 12 14 14 14 14 16 14 16 5 7 7 9 14 14 14 16 14 1 14 1 14 14 14 7 14 14 14 7 3 14 14 16 14 14 14 14 14 14 14 12 14 14 14 16 5 1 14 5 14 6 14 6 12 14 16 14 14 14 14 14 14 14 14 16 9 14 14 14 16 14 14 12 16 14 12 14 14 14 16 14 5 16 14 6 14 14 16 16 16 14 16 14 5 16 14 12 14 3 14 14 5 14
split_gain=435.343 44.1669 42.7297 25.3303 11.9879 11.7376 7.78032 7.49564 6.90443 6.09168 7.46071 5.47874 4.62481 4.75539 8.63533 8.05699 5.39062 3.86419 3.77954 3.48533 3.412 6.22875 3.38307 9.72762 7.36809 6.74071 5.609 5.0733 9.95332 5.06448 6.26649 5.90364 17.9115 5.60684 8.32759 5.97441 4.78511 4.2002 4.06822 3.3789 7.81725 7.51486 6.25021 5.99625 4.74887 3.52441 3.27742 3.22933 3.3317 2.5299 4.27789 2.43774 2.40952 2.83358 2.39943 4.40748 4.66214 2.39616 5.47591 2.38682 2.75628 4.11528 2.36413 4.20181 4.16335 2.34597 2.33251 2.27894 3.42196 2.2387 2.2365 8.43447 4.58135 5.31486 2.36295 5.89156 1.98855 8.89512 1.94546 4.62921 1.93695 5.54775 1.7911 4.04505 1.70058 2.18805 2.32881 2.53251 2.14616 6.34017 1.63729 2.8881 8.656 1.61166 4.20308 1.4216 2.56964 1.40556 4.13033 1.39904 4.23289 1.37667 2.99465 2.79363 1.73196 3.50718 1.32717 7.24549 1.32402 3.43527 1.2981 3.23426 1.50642 5.36838 1.9069 3.1785 6.76792 9.7292 1.43019 1.28015 3.37509 2.86784 1.23622 5.51907 1.21017 3.31692 1.19178 4.11528 1.14694 2.83898 1.10151 3.93511 1.00479 1.6856 4.77992 0.95689 4.50495 1.31177 4.11528 0.936274 3.65919 1.00505 0.927703 2.49062 0.906169 3.09524 0.971413 5.43775 0.893907 0.88624 1.4365 5.64979 0.85469 4.28174 0.850189 2.22572 4.97016 1.16115 1.02945 0.897061 0.846974 0.784848 0.756546 3.56068 0.740002 0.703456 0.679277 0.671049 4.61805 0.651725 2.43692 0.648492 3.43526 0.615666 0.597286 0.597207 0.586881 0.56588 0.540397 3.1678 0.524283 0.51434 0.499333 0.455555 0.45479 0.532383 0.450396 0.447405 0.4436 0.431042 0.417132 0.395703 0.75523 0.364972 0.364569 0.353622 0.350838 0.337462 4.07215 0.330921 0.273691 0.353949 0.265761 0.257396 0.228767 0.406952 0.22659 0.493699 0.291249 0.220076 0.262819 0.218119 0.200264 0.199472 0.196244 0.406502 0.247768 0.224693 0.475303 0.176872 0.176749 0.172926 0.171654 0.185003 0.170953 0.158506 0.158166 0.15578 0.153849 0.342033 0.150585 0.136425 0.42305 0.382965 0.132548 0.182616 4.32256 0.299097 0.642112 0.115209 0.162719 0.0860687 0.213172 0.0782171 0.124902 0.0779612 0.34496 0.0731771 0.0715001 0.0696833 0.0621984 0.0554633
threshold=0.45436480813556329 -0.25327308951884836 1.0735479685831739 1.0000000180025095e-35 1.6323706845849555 0.085521143558261875 1.0000000180025095e-35 1.0000000180025095e-35 0.54281954534236487 0.27745533372196041 -0.90224078851510836 2.5707721265927264 1.3071656661438071 1.3389121802035782 -0.18093716187416323 -0.7865141809340136 -0.99875324560086887 1.0000000180025095e-35 -1.0326540743483841 0.89663849416957075 -0.97567417977601301 -0.83576424484734224 -0.020046258013805326 -0.22046972438755244 0.75028658023592432 1.5425942227877898 1.2543819653577735 0.23322796511855967 -0.16481835231204692 0.27745533372196041 0.056318490704956703 -0.53087763842424818 -0.50205641268124657 1.0000000180025095e-35 -0.43072111831351062 -0.48460908062226477 1.0000000180025095e-35 0.82360954534455699 1.0000000180025095e-35 -0.65345066744620928 0.63127428254916629 -0.44319927352025096 0.675501651152567 1.0000000180025095e-35 0.58704691394576558 0.028209970529074875 1.0000000180025095e-35 0.80818375696276923 -0.84382535396320091 0.54281954534236487 1.0000000180025095e-35 -0.24376964251695221 2.7049399016032507 2.9702939455129553 0.85241112556616994 1.0000000180025095e-35 1.0000000180025095e-35 2.6020227276857129 2.658892196105811 -0.77734881029543479 -0.68646808697554829 -0.29136331414620015 0.36591007092876188 1.0000000180025095e-35 2.7951580680095049 0.18900059651515891 1.029320599979773 1.0000000180025095e-35 1.0000000180025095e-35 1.0000000180025095e-35 -0.66206390732342812 -0.66305774269387641 -1.8481120013574786 -1.8551883803340226 -1.06280041391865 -1.0704198184254208 1.0000000180025095e-35 0.52656319573277754 -0.059910098984010653 -0.07614274336800006 1.0000000180025095e-35 -1.0704198184254208 1.0000000180025095e-35 -0.10397013374055332 1.9813173257645926 1.0000000180025095e-35 2.0698790998867662 2.1925625550609991 2.2079117902268126 1.515821654617181 1.0000000180025095e-35 1.6042763918239824 -0.94276718639894597 0.76395638835936852 1.0000000180025095e-35 -0.9202402513354504 -0.62021239561232611 1.0000000180025095e-35 1.2946848116001772 -0.35132471482991612 0.0081124108155640664 -0.85807032760629365 -0.73892050930476583 1.6042763918239824 1.6927311290307838 1.0000000180025095e-35 1.0000000180025095e-35 0.94086586277297146 -0.9202402513354504 -0.92763880353767691 -0.71760826191626259 -0.69209982074142229 -0.045775551493190063 -0.14858229925845631 1.6485037604273833 -0.60331719431470454 1.0000000180025095e-35 -0.36225690390484788 0.10429358944450819 -0.63821185843266803 1.4715942860137805 1.6485037604273833 0.58704691394576558 0.49859217673896411 1.0000000180025095e-35 1.0000000180025095e-35 1.0000000180025095e-35 1.0000000180025095e-35 -0.16481835231204692 1.0000000180025095e-35 1.0000000180025095e-35 2.7090256692373162 2.1743422399361134 0.36368462113152317 0.64770068477520204 1.2375971902124234 0.85241112556616994 0.94086586277297146 1.6323706845849555 -0.35132471482991612 1.0000000180025095e-35 -0.19220062940591096 0.43203840938791399 0.22786045383691753 1.0000000180025095e-35 1.0000000180025095e-35 1.0000000180025095e-35 1.0000000180025095e-35 1.0000000180025095e-35 1.0000000180025095e-35 1.0000000180025095e-35 -0.50205641268124657 -0.21075222298761306 -0.091491978533813204 2.5083813505590249 1.3389121802035782 2.3033199857898525 1.6485037604273833 1.0000000180025095e-35 1.0000000180025095e-35 1.0000000180025095e-35 1.0000000180025095e-35 3.2045078144819459 2.7090256692373162 2.7049399016032507 0.94086586277297146 0.82360954534455699 1.0000000180025095e-35 -0.61402853108509203 1.0000000180025095e-35 -0.69209982074142229 -0.70744905590723517 -0.48836356979951395 1.0000000180025095e-35 -0.70800118666859557 2.0861117442707555 0.2159344293915377 1.0000000180025095e-35 1.0000000180025095e-35 -0.059910098984010653 3.1240071494756312 0.675501651152567 0.22786045383691753 0.87098236466926104 1.2543819653577735 -0.40035392643870049 -0.40035392643870049 -0.069848452688494031 2.2561680187696926 1.0000000180025095e-35 -0.28838180803485519 -0.62462944170320756 -0.68856618386871704 0.80818375696276923 1.0000000180025095e-35 1.0000000180025095e-35 -0.18093716187416323 1.0000000180025095e-35 2.5256078303134628 1.0000000180025095e-35 -0.020046258013805326 1.0000000180025095e-35 1.0000000180025095e-35 -0.36225690390484788 1.4273669174103796 0.073815971417426088 -1.0221635898825405 -0.88567686567430293 -0.99742813177360434 0.12538498452846739 0.2159344293915377 -0.036941459311426984 -0.53297573531741682 0.63127428254916629 1.0000000180025095e-35 3.4031644624193409 2.658892196105811 2.7703121837482971 1.5600490232205819 -0.99875324560086887 -0.66206390732342812 1.0000000180025095e-35 0.94086586277297146 2.283443278380886 1.0000000180025095e-35 -0.18226227570142753 1.5039450694925769 -0.70800118666859557 0.675501651152567 -0.35651474398670185 1.0000000180025095e-35 1.3831395488069786 2.3664837448894578 1.0000000180025095e-35 2.8236480152956904 2.9178415231837378 1.515821654617181 1.2062300743933758 1.6042763918239824 0.01330243997234979 1.5600490232205819 1.5425942227877898 1.0000000180025095e-35 0.85241112556616994 1.7694095395545537 1.0000000180025095e-35 -0.77105451961592852 1.0000000180025095e-35 -0.37992508826837373 0.52656319573277754 1.0000000180025095e-35 -1.0000000180025095e-35
decision_type=2 2 2 2 2 2 2 2 2 2 2 2 2 2 2 2 2 2 2 2 2 2 2 2 2 2 2 2 2 2 2 2 2 2 2 2 2 2 2 2 2 2 2 2 2 2 2 2 2 2 2 2 2 2 2 2 2 2 2 2 2 2 2 2 2 2 2 2 2 2 2 2 2 2 2 2 2 2 2 2 2 2 2 2 2 2 2 2 2 2 2 2 2 2 2 2 2 2 2 2 2 2 2 2 2 2 2 2 2 2 2 2 2 2 2 2 2 2 2 2 2 2 2 2 2 2 2 2 2 2 2 2 2 2 2 2 2 2 2 2 2 2 2 2 2 2 2 2 2 2 2 2 2 2 2 2 2 2 2 2 2 2 2 2 2 2 2 2 2 2 2 2 2 2 2 2 2 2 2 2 2 2 2 2 2 2 2 2 2 2 2 2 2 2 2 2 2 2 2 2 2 2 2 2 2 2 2 2 2 2 2 2 2 2 2 2 2 2 2 2 2 2 2 2 2 2 2 2 2 2 2 2 2 2 2 2 2 2 2 2 2 2 2 2 2 2 2 2 2 2 2 2
left_child=1 70 3 5 7 18 22 47 51 10 -8 49 13 14 15 16 -4 78 -2 54 181 -22 23 29 -24 26 37 28 38 30 31 -3 128 34 -32 65 -36 -26 148 40 -23 42 44 45 -41 66 62 48 -5 50 126 59 -13 130 55 56 -6 -27 -59 -9 -61 -62 184 64 -64 69 67 82 99 95 71 72 73 -1 75 -74 132 182 79 -16 81 -15 93 -84 194 154 199 -88 -89 -90 101 92 230 122 -95 -35 -97 98 144 -69 -101 206 103 -103 110 203 174 -108 109 -31 -104 -112 113 114 115 191 221 -118 204 121 -121 245 123 211 125 213 127 -7 247 -130 -54 -132 133 193 -135 136 -136 175 -139 -119 141 -141 143 176 146 161 212 -148 -25 196 151 -151 -29 -154 155 156 -86 197 -158 231 -116 -146 163 164 -91 -96 189 168 220 -10 -171 227 -173 190 -42 241 -120 -93 -155 187 -57 -20 -78 -138 185 -11 -38 -180 -56 249 -152 192 -113 209 226 -161 -122 214 -199 -87 201 228 -50 -106 205 -114 -83 208 219 -51 -211 -43 -17 -46 216 -216 -156 218 -218 -208 -99 250 223 -134 -162 -143 -14 -67 229 -124 -92 -157 233 -233 -219 236 -236 -237 -239 -206 -241 -137 243 244 -243 -82 -247 -33 -169 -144 -117 -187
right_child=2 6 12 4 19 11 9 8 169 46 -12 52 84 80 17 97 -18 -19 20 -21 21 39 24 27 25 57 -28 152 -30 108 33 32 -34 35 36 -37 186 -39 -40 41 106 43 -44 -45 124 -47 -48 -49 202 76 -52 -53 53 -55 188 180 -58 58 -60 60 61 -63 63 -65 -66 171 -68 68 -70 -71 -72 -73 74 -75 -76 -77 77 -79 -80 -81 119 90 83 -85 85 86 87 88 89 162 91 177 -94 94 165 96 -98 167 -100 100 -102 102 104 -105 105 -107 107 -109 -110 -111 111 112 118 -115 160 116 117 139 142 120 149 -123 200 -125 -126 -127 -128 -129 129 -131 131 -133 222 134 135 137 183 138 -140 140 -142 225 166 -145 145 -147 147 -149 -150 150 173 -153 153 178 157 159 158 -159 -160 195 224 -163 -164 -165 -166 -167 -168 248 -170 170 -172 172 -174 -175 -176 -177 -178 -179 179 -181 -182 -183 -184 -185 -186 251 -188 -189 -190 -191 -192 -193 -194 -195 -196 -197 -198 198 -200 -201 -202 -203 -204 -205 239 -207 207 -209 -210 210 -212 -213 -214 -215 215 -217 217 234 -220 -221 -222 -223 -224 -225 -226 -227 -228 -229 -230 -231 -232 232 -234 -235 235 237 -238 238 -240 240 -242 242 -244 -245 -246 246 -248 -249 -250 -251 -252 -253
leaf_value=0.45042509443326628 0.45042509443326628 0.45040746953261995 0.53372503161800799 0.45045314709616668 0.45041770692106203 0.4504394109483047 0.53610707148314318 0.45044513526032909 0.45040696369704702 0.52373090503092834 0.45041154423832974 0.45042910388357854 0.53789378038578139 0.45043177649344146 0.45042691699035253 0.5327488397268616 0.45041597965552371 0.52539753737673822 0.55039090650506628 0.45043511685421211 0.45041707360421074 0.450423552165852 0.45040696369704702 0.51882143949367054 0.51914941587221664 0.45040995091694347 0.54005364203803574 0.54414190189030298 0.45041121060250616 0.45042691699035253 0.45040958012948989 0.55039169151816625 0.45040885913815659 0.54129626524081609 0.45043177649344146 0.45042223014666932 0.55038320041403288 0.45041707360421074 0.4504394109483047 0.450423552165852 0.52817540639403593 0.5327488397268616 0.45041063642811491 0.45042108434019523 0.5203954422338799 0.45043511685421211 0.4504394109483047 0.4504394109483047 0.53039543441677206 0.55039931864411851 0.45042910388357854 0.45043177649344146 0.55037834965064825 0.4504394109483047 0.52817540639403593 0.5203954422338799 0.53220933006759918 0.55037834965064825 0.45042223014666932 0.55038902257430333 0.45042910388357854 0.550370728926176 0.45041919701512162 0.55038501969329223 0.537882527393716 0.53610707148314318 0.45045314709616668 0.54205502565565011 0.45042691699035253 0.4504394109483047 0.4504053133424043 0.5503810174538839 0.45041306222515826 0.54269709688179113 0.45040593261134754 0.52896666781044688 0.52539503758036599 0.45042108434019523 0.45041429656413767 0.55037501529743937 0.54927880533751361 0.55039645819891903 0.45042910388357854 0.53500763457660816 0.45042910388357854 0.55039459286766468 0.45044513526032909 0.55039002339482457 0.45042223014666932 0.51706504354272387 0.5503810174538839 0.55039090650506628 0.45041707360421074 0.45043177649344146 0.51193924766105936 0.4504394109483047 0.53609482557649668 0.53610707148314318 0.4504394109483047 0.45043177649344146 0.55037501529743937 0.45043177649344146 0.54817771532161352 0.52182626413775057 0.54038582571388261 0.45043511685421217 0.45042691699035253 0.54669309638773222 0.45040774277575879 0.55035701748245947 0.45045314709616668 0.55038902257430333 0.5268681508007933 0.45043177649344146 0.52262133511300335 0.54129626524081609 0.45041333889263813 0.5503810174538839 0.51540144205421023 0.45045314709616668 0.52816799911460144 0.47043392270457218 0.55039002339482457 0.45043177649344146 0.5503810174538839 0.4504394109483047 0.55038501969329223 0.5503810174538839 0.45045314709616668 0.54129626524081609 0.55037834965064825 0.4504394109483047 0.53372503161800799 0.45043511685421211 0.45043511685421217 0.55039090650506628 0.5503865591869741 0.5503810174538839 0.4504394109483047 0.5049485245479487 0.4504394109483047 0.55038320041403288 0.55039502809916285 0.45045314709616668 0.51468586046505427 0.45044513526032909 0.45043511685421217 0.55039090650506628 0.55039090650506628 0.5503865591869741 0.52896666781044688 0.45042910388357854 0.45043511685421211 0.5503810174538839 0.55040074898957592 0.55039239391922601 0.51193924766105936 0.51193924766105936 0.55038902257430333 0.51540144205421023 0.53862952865292979 0.55038320041403288 0.55038320041403288 0.45044513526032909 0.55038902257430333 0.54372449318845961 0.51403545972116549 0.55039945169605453 0.45044513526032909 0.53037624187405397 0.45042008171647829 0.45045314709616674 0.55038320041403288 0.51706504354272387 0.55039854551851541 0.52408326523126314 0.54269709688179113 0.52373090503092834 0.52539753737673822 0.45045314709616679 0.55038787882853568 0.52539753737673822 0.55039502809916285 0.51705838623263933 0.51706504354272387 0.55039169151816625 0.52373090503092834 0.5503865591869741 0.55039169151816625 0.52539503758036599 0.55039579814270201 0.55039703026175124 0.51914941587221664 0.5273181722714253 0.53439850640728681 0.5392731743826249 0.55039797251145139 0.55039411807831706 0.45045314709616668 0.53164565888125981 0.5273181722714253 0.52181892222681736 0.55038501969329223 0.51706282384657809 0.5490129064645427 0.5503865591869741 0.5303906339738812 0.55039459286766468 0.51962870996624233 0.52896666781044688 0.54622919636165268 0.55038501969329223 0.54563795912809399 0.54038582571388261 0.52539753737673822 0.55038320041403288 0.52182626413775057 0.55039645819891903 0.5503810174538839 0.55037501529743937 0.55039459286766468 0.53372503161800799 0.53220933006759918 0.54699340481054981 0.55039981614629152 0.53372503161800799 0.54839006963569803 0.55039090650506628 0.55039753082747833 0.52896666781044688 0.53372503161800799 0.54851388483668051 0.5268681508007933 0.53039543441677206 0.45045314709616668 0.55040003380660829 0.55039753082747833 0.52182626413775057 0.55039169151816625 0.53220933006759918 0.55037834965064825 0.55037834965064825 0.52816799911460144 0.55039090650506628 0.53500763457660816 0.55039753082747833 0.5327488397268616 0.5392731743826249 0.54129626524081609 0.54038582571388261 0.55039542851884016 0.54129626524081598
leaf_weight=12 11.999999999999998 99 11.999999999999998 4.9999999999999991 19 7.0000000000000009 13.999999999999998 5.9999999999999991 125 14.999999999999995 37 9.9999999999999982 15.999999999999998 8.9999999999999982 11 17 22 15.999999999999998 17 7.9999999999999991 20 12.999999999999998 125 19 15.999999999999998 49 29 15.999999999999998 39 10.999999999999998 53 18 63 11 8.9999999999999982 13.999999999999998 10.999999999999998 20 6.9999999999999991 12.999999999999998 18 17 43 14.999999999999998 10.000000000000004 7.9999999999999991 6.9999999999999991 6.9999999999999991 15 42 9.9999999999999982 8.9999999999999982 9.0000000000000018 6.9999999999999991 18 10 11.000000000000002 9.0000000000000018 13.999999999999998 14.999999999999995 9.9999999999999964 7.000000000000008 17 11.999999999999998 8.0000000000000018 13.999999999999998 4.9999999999999991 11.999999999999998 10.999999999999998 6.9999999999999991 873 9.9999999999999982 30 13 269 13.999999999999998 11.999999999999998 14.999999999999998 26 8 89 28 10.000000000000002 12.999999999999998 9.9999999999999982 23 5.9999999999999991 15.999999999999998 13.999999999999998 12 10 17 20 8.9999999999999982 13 6.9999999999999991 7.0000000000000009 13.999999999999998 6.9999999999999991 9.0000000000000036 8 9.0000000000000018 45 13.999999999999998 10.000000000000002 8.0000000000000018 10.999999999999998 27 89 4.9999999999999991 4.9999999999999991 15.000000000000002 17 8.9999999999999982 18 10.999999999999998 28.999999999999993 9.9999999999999911 20 4.9999999999999991 8.9999999999999982 4.9999999999999991 16.000000000000004 8.9999999999999982 9.9999999999999982 6.9999999999999991 12.000000000000002 10 4.9999999999999973 11 8.9999999999999982 6.9999999999999991 11.999999999999998 7.9999999999999991 8.0000000000000018 17 13.000000000000002 10.000000000000002 6.9999999999999991 10.999999999999991 6.9999999999999991 10.999999999999991 24 4.9999999999999991 14.000000000000004 5.9999999999999991 8.0000000000000018 17 17 13.000000000000002 13.999999999999995 9.9999999999999982 7.9999999999999991 9.9999999999999982 56 19 13 12.999999999999998 15 20 17 11 10.999999999999998 5.9999999999999991 15 15 10.999999999999998 43 5.9999999999999991 5.0000000000000027 15.999999999999998 5.0000000000000009 11.000000000000004 11.999999999999998 37 19 12.999999999999998 14.999999999999998 15.999999999999995 5.0000000000000062 14 15.999999999999998 24 5.9999999999999991 11.999999999999998 17.999999999999996 15.000000000000002 12.999999999999998 18 11.999999999999998 26.000000000000004 30 15.999999999999998 12.999999999999998 25 9.0000000000000018 34 22.000000000000004 4.9999999999999991 15.999999999999998 12.999999999999998 6.9999999999999991 12 8.9999999999999982 72 13.000000000000002 10.000000000000002 23 13.000000000000002 13.999999999999998 24 12.000000000000002 42 10 15.999999999999998 11.000000000000002 14 28 10 7.9999999999999991 23 11.999999999999998 10.999999999999998 88 46 12.00000000000003 149 17 32 13.999999999999998 12 53 17 14.999999999999998 4.9999999999999991 48 32 13.999999999999998 18 11 9 9 8.9999999999999982 17 13 32 17 9.0000000000000018 10.999999999999998 9.9999999999999982 25 11.000000000000009
leaf_count=12 12 99 12 5 19 7 14 6 125 15 37 10 16 9 11 17 22 16 17 8 20 13 125 19 16 49 29 16 39 11 53 18 63 11 9 14 11 20 7 13 18 17 43 15 10 8 7 7 15 42 10 9 9 7 18 10 11 9 14 15 10 7 17 12 8 14 5 12 11 7 873 10 30 13 269 14 12 15 26 8 89 28 10 13 10 23 6 16 14 12 10 17 20 9 13 7 7 14 7 9 8 9 45 14 10 8 11 27 89 5 5 15 17 9 18 11 29 10 20 5 9 5 16 9 10 7 12 10 5 11 9 7 12 8 8 17 13 10 7 11 7 11 24 5 14 6 8 17 17 13 14 10 8 10 56 19 13 13 15 20 17 11 11 6 15 15 11 43 6 5 16 5 11 12 37 19 13 15 16 5 14 16 24 6 12 18 15 13 18 12 26 30 16 13 25 9 34 22 5 16 13 7 12 9 72 13 10 23 13 14 24 12 42 10 16 11 14 28 10 8 23 12 11 88 46 12 149 17 32 14 12 53 17 15 5 48 32 14 18 11 9 9 9 17 13 32 17 9 11 10 25 11
internal_value=0.50045 0.466053 0.52248 0.50832 0.484345 0.51636 0.48105 0.471957 0.463877 0.502061 0.473937 0.527735 0.531285 0.527735 0.516965 0.525108 0.47982 0.483193 0.505874 0.51367 0.507205 0.505009 0.477537 0.48145 0.467963 0.483982 0.507328 0.503738 0.486991 0.474642 0.479939 0.467967 0.484368 0.493499 0.475406 0.51062 0.51326 0.480963 0.52017 0.507452 0.523046 0.502604 0.478363 0.511695 0.502405 0.515641 0.516404 0.511942 0.525401 0.531102 0.506815 0.497214 0.493263 0.506654 0.519293 0.50596 0.480408 0.462908 0.489538 0.508299 0.519152 0.491584 0.521372 0.501756 0.478409 0.52129 0.51796 0.519496 0.497905 0.500405 0.453108 0.459888 0.45721 0.498405 0.45392 0.475408 0.533525 0.51511 0.468186 0.492512 0.531028 0.52846 0.524293 0.498232 0.537451 0.534769 0.522673 0.512904 0.517971 0.509025 0.529394 0.515269 0.498024 0.528111 0.509863 0.514402 0.493265 0.53214 0.524994 0.51592 0.497465 0.530936 0.529264 0.493885 0.530684 0.50596 0.533199 0.518824 0.455169 0.481661 0.531907 0.530445 0.531252 0.52639 0.528923 0.52342 0.514467 0.496655 0.537501 0.538374 0.530892 0.544809 0.533737 0.518824 0.520673 0.509663 0.526263 0.509226 0.534122 0.512901 0.522401 0.506653 0.536287 0.5325 0.525404 0.530091 0.513366 0.534562 0.509226 0.522952 0.516257 0.529813 0.528298 0.516193 0.529534 0.514919 0.534927 0.518402 0.533734 0.534302 0.527737 0.506925 0.523933 0.517711 0.537878 0.532275 0.51093 0.541158 0.532542 0.538374 0.541761 0.530399 0.527675 0.520099 0.535584 0.528972 0.536367 0.541125 0.531797 0.453146 0.46946 0.535508 0.519149 0.53694 0.543129 0.539689 0.526159 0.537899 0.529947 0.523931 0.537898 0.538278 0.542066 0.539869 0.534331 0.539037 0.535014 0.536606 0.539289 0.541705 0.5429 0.542205 0.534271 0.542876 0.545667 0.522815 0.545749 0.542519 0.531881 0.542708 0.540647 0.543156 0.539287 0.529345 0.544666 0.537066 0.543085 0.53929 0.531045 0.545402 0.539874 0.540054 0.541927 0.530398 0.543658 0.535584 0.544626 0.542712 0.533732 0.539284 0.544994 0.544151 0.544097 0.545403 0.547227 0.541701 0.547373 0.543947 0.545563 0.540399 0.541305 0.542711 0.540991 0.54452 0.544197 0.542711 0.536887 0.545402 0.537899 0.547142 0.540395 0.544248 0.542068 0.545271 0.541305 0.547505 0.544278 0.546693 0.548549 0.547457 0.547621 0.546949
internal_weight=0 2275 3427 1314 330 984 1054 232 193 151 51 472 2113 1341 314 253 34 61 512 98 500 467 903 641 262 137 65 150 82 491 386 205 106 181 88 93 35 36 43 447 106 341 93 248 50 233 100 39 32 430 39 47 42 32 90 54 30 72 23 38 32 17 93 37 25 79 225 220 40 32 1221 348 338 25 313 44 391 51 45 19 1027 761 180 23 772 582 119 80 74 58 752 74 42 157 37 25 14 219 122 29 17 678 596 23 573 27 93 38 105 16 546 501 496 279 270 189 128 80 217 266 123 143 120 38 37 27 29 17 43 16 25 16 340 229 136 128 27 101 17 51 41 34 95 38 115 31 84 25 36 118 75 23 68 52 463 171 38 292 28 133 81 25 44 33 27 28 57 97 43 146 21 47 16 52 55 84 33 32 44 34 24 33 36 19 56 44 26 29 36 46 40 61 31 93 190 29 43 279 27 39 82 69 27 19 122 30 82 54 31 80 38 29 59 20 252 27 225 169 24 18 37 48 111 100 63 23 165 31 62 30 22 104 85 68 145 117 37 80 32 92 20 65 48 39 22 138 49 27 54 34 36 29
internal_count=5702 2275 3427 1314 330 984 1054 232 193 151 51 472 2113 1341 314 253 34 61 512 98 500 467 903 641 262 137 65 150 82 491 386 205 106 181 88 93 35 36 43 447 106 341 93 248 50 233 100 39 32 430 39 47 42 32 90 54 30 72 23 38 32 17 93 37 25 79 225 220 40 32 1221 348 338 25 313 44 391 51 45 19 1027 761 180 23 772 582 119 80 74 58 752 74 42 157 37 25 14 219 122 29 17 678 596 23 573 27 93 38 105 16 546 501 496 279 270 189 128 80 217 266 123 143 120 38 37 27 29 17 43 16 25 16 340 229 136 128 27 101 17 51 41 34 95 38 115 31 84 25 36 118 75 23 68 52 463 171 38 292 28 133 81 25 44 33 27 28 57 97 43 146 21 47 16 52 55 84 33 32 44 34 24 33 36 19 56 44 26 29 36 46 40 61 31 93 190 29 43 279 27 39 82 69 27 19 122 30 82 54 31 80 38 29 59 20 252 27 225 169 24 18 37 48 111 100 63 23 165 31 62 30 22 104 85 68 145 117 37 80 32 92 20 65 48 39 22 138 49 27 54 34 36 29
is_linear=0
shrinkage=1


Tree=1
num_leaves=253
num_cat=0
split_feature=16 16 16 7 14 14 1 16 3 16 16 14 8 14 14 16 14 14 14 9 14 14 14 0 14 14 16 16 14 14 14 14 14 8 16 16 5 14 14 16 16 14 14 14 12 14 16 16 14 16 8 12 0 14 14 14 16 12 14 14 16 16 14 14 14 14 0 14 14 14 16 12 14 14 14 14 14 14 12 1 14 8 14 14 14 14 14 0 16 8 5 14 12 14 14 14 16 9 16 14 14 14 16 5 14 14 16 14 14 14 8 0 14 16 3 16 16 14 3 9 7 14 16 5 14 14 16 1 16 16 14 14 14 14 16 16 8 14 16 14 16 14 14 14 14 14 14 16 16 16 16 14 0 3 14 16 14 14 14 0 8 14 16 14 16 8 5 0 7 14 14 14 14 12 14 14 14 14 14 8 14 14 12 1 14 9 1 0 14 14 7 14 16 16 14 14 14 16 16 16 16 14 14 14 3 5 5 14 14 14 16 16 9 0 0 8 14 14 12 16 14 16 14 3 16 16 14 1 14 9 14 14 14 16 14 14 14 0 12 0 14 14 16 14 14 3 8 3 14 14 14 12
split_gain=352.633 35.7753 34.6122 20.518 9.71536 9.50786 6.30229 5.93247 4.99824 6.03013 4.93444 6.04347 4.48231 4.43807 3.74615 3.85207 6.9948 6.52633 4.36669 3.13015 3.06167 2.76393 5.04553 3.91206 8.847 7.86207 2.86245 3.90582 2.74035 7.8795 5.96817 5.46009 4.54348 4.19069 4.44704 5.33299 5.78175 5.12714 14.5146 4.10954 8.0624 3.71852 3.40235 2.6991 2.62078 2.47878 2.35973 2.82886 5.4785 2.04932 4.4668 2.04767 1.95194 1.94094 4.43592 1.81968 8.31484 2.94608 1.81156 6.83233 3.71088 4.30541 1.91397 4.77241 1.75649 4.24992 1.72757 1.62682 2.38835 3.71531 2.22091 1.6108 7.20551 1.6087 2.08883 1.60158 2.70072 2.60708 2.08108 1.56887 4.49409 4.10426 1.56226 2.06625 1.45721 2.7685 1.43903 1.40918 4.75089 1.58429 5.61908 1.37739 1.77238 1.88646 2.05163 1.73852 5.1359 1.32619 2.33946 7.01188 1.20794 2.60211 1.20317 2.80599 1.18394 2.33106 1.20384 1.24284 1.11521 2.42584 3.66963 1.45917 3.4418 3.15883 1.10879 3.17685 1.10744 3.90676 1.09028 2.17561 1.32393 2.93179 1.00876 3.88641 0.967506 7.20309 2.90612 0.964199 1.57812 0.923025 3.16534 0.894563 2.31937 0.89245 0.8873 2.83927 0.883307 2.7743 0.875277 2.86448 0.820717 3.11827 1.31025 4.13655 0.813839 1.39322 1.79788 3.02161 1.06264 3.33381 0.796339 2.0252 0.788343 3.92401 0.782755 0.716246 0.692567 3.05173 0.690169 0.778026 3.37742 0.688654 1.80293 4.0262 0.940546 3.07457 0.833912 3.07457 0.726605 0.653932 3.88594 0.63838 0.615015 3.01072 0.61289 2.88454 0.601651 2.8642 3.23125 1.64611 2.02754 0.599439 0.599367 2.69851 0.574489 0.563778 2.83165 0.505087 0.484151 0.483789 0.458389 0.420601 1.0631 0.41664 0.40446 0.365374 0.324828 0.324643 0.310234 0.307562 0.624365 0.6066 2.78445 0.331797 0.29683 0.29528 0.27338 3.29887 0.2725 0.736669 3.06164 0.269347 0.264711 0.390843 0.249133 0.218274 0.186602 0.399802 0.555222 2.69337 0.246524 0.177015 0.168955 0.43726 0.168795 0.341666 1.07106 0.167326 0.244477 0.158929 0.329308 0.200677 0.181968 0.385046 0.151133 0.145248 0.144448 0.479185 0.141468 0.138439 0.401505 0.294987 0.144084 0.128088 0.122989 0.115598 0.115574 0.114933 0.107393 0.186196 0.0824985 0.202098
threshold=0.45436480813556329 -0.25327308951884836 1.0735479685831739 1.0000000180025095e-35 2.0062736361780726 0.085521143558261875 1.0000000180025095e-35 0.76395638835936852 1.0000000180025095e-35 0.54281954534236487 0.27745533372196041 -0.90224078851510836 1.0000000180025095e-35 2.5707721265927264 1.3071656661438071 1.3389121802035782 -0.18093716187416323 -0.7865141809340136 -0.99875324560086887 1.0000000180025095e-35 -1.0326540743483841 -0.97567417977601301 -0.83576424484734224 1.0000000180025095e-35 -0.12406769345406414 -0.20191813080585014 0.675501651152567 0.76395638835936852 -0.020046258013805326 -0.22046972438755244 0.75028658023592432 1.5425942227877898 1.2543819653577735 1.0000000180025095e-35 0.27745533372196041 0.056318490704956703 1.0000000180025095e-35 -0.53087763842424818 -0.50205641268124657 0.23322796511855967 -0.16481835231204692 -0.10363885528373736 0.82360954534455699 -0.84382535396320091 1.0000000180025095e-35 0.028209970529074875 0.89663849416957075 0.76395638835936852 3.1240071494756312 0.54281954534236487 1.0000000180025095e-35 1.0000000180025095e-35 1.0000000180025095e-35 2.6020227276857129 2.658892196105811 -0.62959861855544919 0.76395638835936852 1.0000000180025095e-35 -0.66206390732342812 -0.66305774269387641 -1.8481120013574786 -1.8551883803340226 -1.06280041391865 -1.0704198184254208 -0.3442574410845059 -0.29136331414620015 1.0000000180025095e-35 -1.0047162578235587 -0.9202402513354504 -0.70800118666859557 0.23322796511855967 1.0000000180025095e-35 0.52656319573277754 1.3549801900775991 2.7951580680095049 -0.77734881029543479 -0.68646808697554829 1.6323706845849555 1.0000000180025095e-35 1.0000000180025095e-35 -1.0704198184254208 1.0000000180025095e-35 -0.70744905590723517 -0.62021239561232611 -0.62021239561232611 -0.20191813080585014 0.01330243997234979 1.0000000180025095e-35 1.2504574429967767 1.0000000180025095e-35 1.0000000180025095e-35 1.9813173257645926 1.0000000180025095e-35 2.0698790998867662 2.1925625550609991 2.2079117902268126 1.515821654617181 1.0000000180025095e-35 1.6042763918239824 -0.94276718639894597 -0.9202402513354504 -0.92763880353767691 0.76395638835936852 1.0000000180025095e-35 -0.32040539219374581 -0.38732364047060025 0.675501651152567 -0.44319927352025096 -0.85807032760629365 -0.73892050930476583 1.0000000180025095e-35 1.0000000180025095e-35 0.52656319573277754 1.6927311290307838 1.0000000180025095e-35 1.1177753371865744 0.58704691394576558 -0.40510225098639813 1.0000000180025095e-35 1.0000000180025095e-35 1.0000000180025095e-35 -0.60331719431470454 0.36591007092876188 1.0000000180025095e-35 -0.53297573531741682 -0.38732364047060025 1.3831395488069786 1.0000000180025095e-35 0.63127428254916629 1.6042763918239824 -0.14858229925845631 -0.10363885528373736 -0.036941459311426984 -0.5895139252806999 0.675501651152567 1.029320599979773 1.0000000180025095e-35 -0.35651474398670185 -0.12059098370864621 -0.5064734587721279 1.5600490232205819 0.096674184937737676 -0.027334384063759723 -0.33663803657773522 2.1743422399361134 0.23536943219141612 1.2375971902124234 0.76395638835936852 0.94086586277297146 1.029320599979773 1.6485037604273833 -0.57438554241943074 1.0000000180025095e-35 1.0000000180025095e-35 -0.40035392643870049 0.7197290197559677 -0.21075222298761306 -0.091491978533813204 0.75028658023592432 1.0000000180025095e-35 1.0000000180025095e-35 2.5083813505590249 1.3389121802035782 2.3033199857898525 1.6485037604273833 1.0000000180025095e-35 1.0000000180025095e-35 1.0000000180025095e-35 1.0000000180025095e-35 -0.61402853108509203 -0.33663803657773522 -0.69209982074142229 -0.10397013374055332 1.0000000180025095e-35 3.2045078144819459 2.7090256692373162 -0.69684814528911976 -0.43811967051573736 -0.59867929591927893 1.0000000180025095e-35 0.82360954534455699 2.7049399016032507 1.0000000180025095e-35 1.0000000180025095e-35 -0.52690229694245494 1.0000000180025095e-35 1.0000000180025095e-35 1.0000000180025095e-35 -0.27590365282811491 2.0861117442707555 1.0000000180025095e-35 -0.27016149290996888 0.54281954534236487 0.675501651152567 0.22786045383691753 -0.49388487741311576 2.0570696662232097 1.4273669174103796 0.7197290197559677 1.4273669174103796 1.6485037604273833 -0.54976051046276642 -0.60331719431470454 -0.60585699581696117 1.0000000180025095e-35 1.0000000180025095e-35 1.0000000180025095e-35 2.5256078303134628 -0.27270129441222574 -0.15642255606977104 1.4715942860137805 1.515821654617181 1.0000000180025095e-35 1.0000000180025095e-35 1.0000000180025095e-35 1.0000000180025095e-35 0.10429358944450819 0.46814776118087015 1.0000000180025095e-35 1.5600490232205819 0.82360954534455699 1.4273669174103796 -0.22046972438755244 1.0000000180025095e-35 1.6485037604273833 1.3831395488069786 2.2079117902268126 1.0000000180025095e-35 0.12538498452846739 1.0000000180025095e-35 3.4031644624193409 2.658892196105811 2.7703121837482971 1.5600490232205819 0.10429358944450819 2.3664837448894578 2.3985073290483485 1.0000000180025095e-35 1.0000000180025095e-35 1.0000000180025095e-35 2.8620763162863594 2.8620763162863594 1.1620027057899753 1.5039450694925769 -0.010439182766138217 1.0000000180025095e-35 1.0000000180025095e-35 1.0000000180025095e-35 -0.66769564108930202 -0.77105451961592852 -0.035726771636434583 1.0000000180025095e-35
decision_type=2 2 2 2 2 2 2 2 2 2 2 2 2 2 2 2 2 2 2 2 2 2 2 2 2 2 2 2 2 2 2 2 2 2 2 2 2 2 2 2 2 2 2 2 2 2 2 2 2 2 2 2 2 2 2 2 2 2 2 2 2 2 2 2 2 2 2 2 2 2 2 2 2 2 2 2 2 2 2 2 2 2 2 2 2 2 2 2 2 2 2 2 2 2 2 2 2 2 2 2 2 2 2 2 2 2 2 2 2 2 2 2 2 2 2 2 2 2 2 2 2 2 2 2 2 2 2 2 2 2 2 2 2 2 2 2 2 2 2 2 2 2 2 2 2 2 2 2 2 2 2 2 2 2 2 2 2 2 2 2 2 2 2 2 2 2 2 2 2 2 2 2 2 2 2 2 2 2 2 2 2 2 2 2 2 2 2 2 2 2 2 2 2 2 2 2 2 2 2 2 2 2 2 2 2 2 2 2 2 2 2 2 2 2 2 2 2 2 2 2 2 2 2 2 2 2 2 2 2 2 2 2 2 2 2 2 2 2 2 2 2 2 2 2 2 2 2 2 2 2 2 2
left_child=1 58 3 5 7 20 28 8 43 75 11 -8 73 49 15 16 17 18 -4 66 -2 193 -23 24 26 55 -24 51 29 33 -30 32 42 34 35 37 44 -3 138 40 41 172 -32 -5 67 131 47 48 -6 50 -7 84 -15 -33 -55 102 57 104 59 60 61 -1 63 -62 -29 -66 -18 -37 -69 -70 82 144 194 122 -75 -10 -77 78 -78 80 -17 150 -71 -84 -28 -86 -68 114 89 90 -89 205 161 196 -95 -96 -97 108 99 221 101 -36 103 -25 105 106 116 -108 187 110 -110 112 113 124 -19 -116 117 -57 -85 120 188 -122 154 -124 171 -126 -127 -11 -129 140 -131 -26 -133 -117 -54 -136 137 185 -39 -140 141 142 143 247 145 227 147 -147 189 -150 169 -152 156 -154 -12 244 -41 -158 159 160 -149 162 163 -93 206 -166 167 -165 224 -81 -171 -111 173 -31 175 181 -113 178 -178 208 -181 -98 183 -52 -118 186 -135 -82 -120 -148 -100 -106 -193 -22 -73 -153 -94 -144 -45 -173 201 202 203 -201 -170 243 229 -208 -179 210 -210 -172 213 -49 -207 -34 250 218 -218 -220 -219 -99 -213 -224 225 -164 245 228 234 231 -231 -163 233 -233 -51 -226 -146 -238 -202 240 -234 -241 -242 -16 -134 -227 -159 -128 249 -104 251 -211
right_child=2 6 14 4 46 13 10 -9 9 127 12 -13 -14 52 91 79 19 87 -20 -21 21 22 23 25 45 -27 27 64 30 39 31 53 215 -35 100 36 -38 38 -40 152 -42 -43 -44 198 -46 -47 -48 212 -50 71 182 -53 134 54 -56 56 -58 -59 -60 -61 62 -63 -64 -65 65 -67 86 68 69 70 -72 72 -74 74 -76 76 77 -79 -80 81 97 -83 83 118 85 -87 -88 88 -90 -91 -92 92 93 94 95 96 174 98 190 -101 -102 -103 248 -105 191 -107 107 -109 109 111 -112 176 -114 -115 115 133 184 -119 119 -121 121 -123 123 -125 125 126 129 128 -130 130 -132 132 155 136 135 -137 -138 -139 139 -141 -142 -143 197 -145 236 146 148 158 149 -151 151 195 153 -155 -156 -157 157 246 -160 -161 -162 164 168 166 165 -167 -168 -169 204 170 211 199 -174 -175 -176 -177 177 179 -180 180 -182 -183 -184 -185 -186 -187 -188 -189 -190 -191 -192 192 -194 -195 -196 -197 -198 -199 -200 200 238 -203 -204 -205 -206 214 207 -209 209 216 -212 222 -214 -215 -216 -217 217 220 219 -221 -222 -223 223 -225 235 226 -228 -229 -230 230 -232 232 239 -235 -236 -237 237 -239 -240 241 242 -243 -244 -245 -246 -247 -248 -249 -250 -251 -252 -253
leaf_value=-0.045024456672204616 -0.045024456672204616 -0.045038004596755957 0.029948822749117629 -0.045002009633005428 -0.046505167507391032 -0.045025030633511459 0.032092549936195792 -0.045215481621477427 -0.045008423056088716 -0.045037291430797294 0.016829919013767264 -0.04503529964797761 -0.045848755873247604 -0.045021662378326235 0.033700488545726257 -0.045019109712944268 -0.045033731990009894 0.045674657588516653 -0.045031748657628656 0.022453493584640064 0.044948188957973728 -0.045030874313352662 -0.045812353886048068 -0.045006432366995218 0.042501158626002011 -0.045762672826073658 0.044945727677829853 -0.045782462661656559 -0.045038963292881672 -0.047733290556528862 0.016829996104096964 -0.04503657275382477 0.028339556060381545 -0.045158162372076073 -0.045018624194618918 -0.044998851837042927 -0.045032913293617055 0.045294556521201637 -0.04503679621051522 0.045571194051260144 -0.045035564168824538 -0.048917862516653539 -0.045030874313352662 0.02535315612415245 -0.048136674403827434 -0.044999648580583911 -0.045007419522469422 0.017292797678095773 0.038948519332218538 0.032738736033997733 -0.0450006400439589 -0.046551773477868201 0.0285850083073797 0.044938141340932242 -0.045026748663498102 -0.046043934176510648 -0.045031413881350756 -0.046172243129700433 -0.04504028173937541 0.04494027741449589 -0.045034082415786846 0.038023909485387065 -0.045039786975869328 0.025665940995029751 0.048776739540426252 -0.046989251992333128 0.0149547717656262 0.042179494303171701 -0.045738257991286842 0.044948188957973749 -0.045007162435221744 0.02245149389200991 -0.04502766672521244 -0.047865270953102737 0.024947776847662584 0.044946681046377369 -0.045028591889940427 0.047927515454029374 0.012228133780915862 0.042349781031034067 0.041462530814660434 -0.047609341984515212 -0.045006589200142527 0.044942021760278214 -0.046029694018355952 0.03594265841174854 -0.045005340986961198 -0.046192049863596304 -0.046701257400552428 0.045867331795041946 0.038144266902121041 -0.045021250112520159 0.027636523285955068 -0.045008423056088716 0.04494748052747604 -0.045026748663498102 0.014954165034902184 0.046605074656051237 0.044948188957973728 -0.045030874313352662 -0.045037722375822355 0.044921072875090479 0.045308891897434159 0.035157835421410426 0.045825189548275143 -0.048213724529846749 -0.044997763906961176 0.020252725225334847 -0.047618512372443494 0.012255860528787695 0.032327653049931848 0.04517601794089262 -0.052179530370441429 -0.04761497011074807 -0.04989820829900822 0.042928274434323677 0.018739817743636863 0.045774477622760996 0.019976949209273891 -0.046227842961930471 0.046353348688000978 -0.046085800261902767 -0.045015099076527898 0.044943477484295141 -0.047930767882278132 -0.048507609161030717 0.044936434580193425 0.028534039377430487 -0.047502775846202383 0.033937113115050876 -0.045940043829654179 -0.045000301815011752 0.044943477484295155 -0.046284590473830128 -0.045021971577680786 0.028584914606509533 0.045417993540144752 -0.047663090093731569 -0.046817125400898447 0.045848313703972104 0.042033685846221885 -0.050528713503415867 0.02664430229490853 -0.048099887677471795 0.041735224192371217 -0.04501944332062794 0.039419686836827061 -0.047883066449788549 -0.045013003629244763 0.044940277414495883 -0.031327149962707156 0.044944711166930267 0.044940277414495883 -0.048996920056106147 0.04330896603240577 0.0086266673260760353 -0.04500741952246945 0.027608391723636425 -0.0050379220158398791 0.044944711166930273 0.045357242813382992 0.044956061178950124 0.044949378710784513 -0.051144708805085787 -0.051144708805085808 0.048776739540426266 0.044946681046377363 0.048776739540426266 0.035207991037817209 -0.046315931574701021 0.022222172995971012 0.044951785688503533 0.048100053474277232 0.039949961987752053 0.044942021760278214 -0.045008423056088716 0.030573530593430771 0.045731757048609219 -0.045019891780095522 -0.049355996927589386 0.033984644711791821 0.044946681046377363 0.044943477484295141 0.044940277414495883 0.042924419530987648 0.0449420217602782 0.045848313703972104 0.01842241260099501 0.047606087257923285 0.021270498076026649 0.020953520562437072 0.046709063005416225 0.0061474790024596028 0.022453493584640064 0.044951484372917988 0.019505981158206308 0.04605835965825357 0.043245276638494673 0.046941634402928457 0.021411522586415929 0.034456754676269512 0.039655010849883314 -0.045005245695935031 0.044938674820538746 0.013337287711331462 0.03940375141839092 0.044950757695691117 -0.045002009633005428 0.046605074656051258 0.027800923488030427 -0.049196134921237374 0.045933381111485684 0.047166249359926117 0.03980451990226775 0.019278989667250737 0.045976202687453296 0.041302803390208649 0.046039351108292298 0.038733215760977123 -0.047597083734904476 0.027066431873243365 0.028561380521217223 0.042160779330609396 0.022600841333947748 0.045763523861540589 0.045130516380402858 -0.0038549641725769777 0.04717102551006494 0.025714083580583059 0.022453493584640064 0.0449420217602782 0.019239332053863713 0.04495227887488077 0.044940277414495883 0.044952342423000197 0.033968954251271354 0.041351837507893778 0.015441069204650807 0.046520375371866804 0.031451936357155284 0.034950063140023774 0.045410381252165975 0.022096653338186327 0.04314617783432613 0.03058925036411235 0.031925826662876654 0.040329507736058583 0.029949352024855592 0.045150528237917265 0.025984412717937666 0.046083759478314612 0.045032737652737652
leaf_weight=12 11.999999999999998 79 11.999999999999998 4.9999999999999991 15 11.999999999999998 13.999999999999998 88 5.9999999999999991 63 15.999999999999998 37 10.999999999999998 9.9999999999999982 15.999999999999998 8.9999999999999982 27 54 22 15.999999999999998 17 20 34 6.0000000000000027 26 20 14.999999999999998 29 125 5.0000000000000027 15.999999999999998 49 17 74 8.9999999999999982 4.9999999999999991 25 26 53 14.999999999999998 39 6.9999999999999991 20 15 7.9999999999999991 4.9999999999999991 5.9999999999999991 12.999999999999998 15 15.999999999999998 4.9999999999999991 4.9999999999999991 10.999999999999998 9.0000000000000018 13.999999999999998 8 21 5.9999999999999991 873 9.9999999999999982 30 13 269 13.999999999999998 8.0000000000000018 10.999999999999998 12.000000000000002 23 11.999999999999998 16.999999999999993 5.9999999999999991 11.999999999999998 14.999999999999998 6.9999999999999991 8.9999999999999982 14.999999999999998 15 6.9999999999999991 11 138 71 5.9999999999999991 5.999999999999992 10.999999999999998 6.9999999999999991 10.000000000000002 5.9999999999999991 10.999999999999998 9.9999999999999982 27 28 9.9999999999999982 17 5.9999999999999991 15.999999999999998 13.999999999999998 12 10.000000000000002 17 20 71 4.9999999999999991 10 15.999999999999998 27 4.9999999999999991 5 6.9999999999999982 11 13.999999999999998 12 35 5.9999999999999991 5.9999999999999991 4.9999999999999991 40 13.999999999999991 11 14.999999999999991 5.9999999999999991 6 7.9999999999999982 8 12 13.999999999999998 4.9999999999999991 9.0000000000000036 4.9999999999999982 6 17.000000000000004 6.9999999999999991 4.9999999999999991 11.999999999999996 4.9999999999999956 10 11 11.999999999999998 6.0000000000000027 4.9999999999999991 9.9999999999999982 51 4.9999999999999991 16.000000000000007 7.999999999999992 76 8.9999999999999982 65 6.0000000000000009 7.0000000000000009 10 6.0000000000000027 13.000000000000004 10 8 37 12.999999999999998 5.9999999999999956 16.000000000000007 8.9999999999999982 13.000000000000002 11 56 19 4.9999999999999991 4.9999999999999973 8 15 8 9.0000000000000018 5.9999999999999991 10.999999999999998 24 12.999999999999998 18 10.999999999999998 5.9999999999999991 13.000000000000002 33 9.9999999999999982 4.9999999999999982 7 15 12 10 33.000000000000007 11 10 10.999999999999998 11.000000000000023 19 14.999999999999998 14 12 15.999999999999998 24 9.9999999999999964 22 45 12 15.000000000000002 17 17.000000000000004 5.9999999999999991 9.9999999999999982 20 14 22.000000000000004 4.9999999999999991 9.9999999999999982 11.000000000000002 4.9999999999999991 24 13.999999999999998 19 11 12.000000000000002 13.999999999999998 29 13.000000000000002 4.9999999999999991 8.9999999999999982 11.999999999999998 35 17 35 12 7.9999999999999991 21 14.999999999999998 15.999999999999998 11.000000000000002 14 27 10 28 14.999999999999998 25 9.9999999999999982 23 20 18 63 17 149 12.000000000000004 15 12.999999999999998 12 30 10 29 18
leaf_count=12 12 79 12 5 15 12 14 88 6 63 16 37 11 10 16 9 27 54 22 16 17 20 34 6 26 20 15 29 125 5 16 49 17 74 9 5 25 26 53 15 39 7 20 15 8 5 6 13 15 16 5 5 11 9 14 8 21 6 873 10 30 13 269 14 8 11 12 23 12 17 6 12 15 7 9 15 15 7 11 138 71 6 6 11 7 10 6 11 10 27 28 10 17 6 16 14 12 10 17 20 71 5 10 16 27 5 5 7 11 14 12 35 6 6 5 40 14 11 15 6 6 8 8 12 14 5 9 5 6 17 7 5 12 5 10 11 12 6 5 10 51 5 16 8 76 9 65 6 7 10 6 13 10 8 37 13 6 16 9 13 11 56 19 5 5 8 15 8 9 6 11 24 13 18 11 6 13 33 10 5 7 15 12 10 33 11 10 11 11 19 15 14 12 16 24 10 22 45 12 15 17 17 6 10 20 14 22 5 10 11 5 24 14 19 11 12 14 29 13 5 9 12 35 17 35 12 8 21 15 16 11 14 27 10 28 15 25 10 23 20 18 63 17 149 12 15 13 12 30 10 29 18
internal_value=0 -0.0309569 0.019827 0.0070829 -0.0144949 0.0143194 -0.0174598 -0.0243611 -0.0128902 -0.0217274 0.00144985 -0.0238619 0.0143594 0.0245572 0.0277521 0.0245572 0.0148639 0.0221926 -0.0185675 -0.0155313 0.00488132 0.00607948 0.0041029 0.00630174 -0.00447945 0.0144193 -0.0212918 -0.0114815 -0.0206219 -0.0170997 -0.0292386 -0.0148212 0.00618987 -0.0232277 -0.0193355 -0.0141099 -0.000889488 -0.0262601 -0.0104771 0.00295952 -0.0121131 0.0177484 -0.0175386 0.0224566 0.00734755 0.0229265 0.0153439 0.020111 -0.00377893 0.0275876 0.00572802 0.0129332 -0.00646891 -0.0337886 -0.00982106 0.019542 0.0136929 0.0223787 -0.0426079 -0.0365056 -0.0389158 -0.0018403 -0.041877 -0.0225383 -0.0303005 -0.00666459 -0.0290379 0.0108721 0.0131825 0.00637531 0.0136491 0.0297679 0.0131938 0.0218029 -0.00691274 0.00368107 0.00977115 -0.00622194 -0.0208068 0.0275208 0.0252096 0.0341322 0.0180508 0.0107899 0.0222333 0.00218586 -0.00503862 0.0285209 0.0175159 0.0272484 0.0143543 0.0333018 0.0308877 0.0200011 0.0112089 0.0157697 0.00771761 0.0260504 0.0133377 -0.00218273 -0.0397443 -0.0128929 0.0327818 0.0132898 0.0254045 0.017947 0.0221908 -0.00694211 0.0274378 0.025933 -0.00590943 0.0272112 0.0228335 0.0242364 0.0343689 0.0275072 0.0274878 0.00711222 0.0166665 0.00990096 0.0183248 -0.00646671 0.0280968 0.00895787 0.0256057 0.0210795 0.0266015 -0.0402677 -0.0129432 0.0288119 0.0106351 0.0279239 0.0188961 0.0321172 0.00558378 -0.00646827 0.0222854 0.0136051 0.0341977 0.0149547 0.0317994 0.0263034 0.0305743 0.013072 0.0322538 0.0288461 0.0231293 0.00719427 0.0307017 0.00789843 0.0360194 0.0203945 0.021135 0.00318847 0.0353175 0.0275355 0.0275948 0.0198854 0.0192477 0.026533 0.0124447 0.0336855 0.0286435 0.00943213 0.0366376 0.0103407 0.0288842 0.0103407 0.0341319 0.0379805 0.0314952 0.0323938 0.0307161 0.0208824 0.024503 0.0176844 0.0330297 0.0310139 -0.00229572 0.035089 -0.000746484 0.0316217 0.0282889 0.0149552 0.0357232 0.0277501 0.0151324 0.038373 0.0316728 0.035316 0.0337055 0.0370806 0.0279929 0.0340465 0.0374555 0.0338908 0.0380327 0.0388934 0.0349547 0.0349105 0.0321696 0.0244758 0.0161469 0.0308292 0.0201295 0.0406956 0.0378627 0.0282878 0.0375323 0.0356386 0.0146658 0.0368638 0.0356902 0.0306631 0.0305543 0.0356439 0.0380957 0.0346124 0.0263692 0.0147463 0.0415498 0.0367715 0.0389814 0.0357689 0.0380354 0.0341492 0.0282809 0.0394915 0.0367545 0.038888 0.0316219 0.0397593 0.038036 0.0299549 0.0405151 0.0422288 0.0392826 0.0339519 0.0413981 0.0393725 0.0357867 0.0420489 0.0287109 0.0422312 0.0377739 0.0378016 0.0333167 0.0363812 0.0413562 0.0356552 0.0422965 0.0385022
internal_weight=0 2275 3427 1314 330 984 1054 248 160 128 151 51 100 472 2113 1341 314 253 34 61 512 500 467 447 192 255 119 85 903 641 262 137 65 491 417 332 159 173 94 150 82 43 36 32 134 73 82 76 30 430 39 37 42 72 23 235 163 142 1221 348 338 25 313 44 48 19 45 126 121 98 86 391 51 89 16 54 48 33 26 1027 761 266 80 63 32 17 18 219 76 66 39 772 582 119 80 74 58 752 74 42 85 14 72 22 136 83 78 12 678 596 23 573 327 321 143 89 66 19 57 46 40 14 73 20 315 189 175 74 11 170 24 68 42 84 32 21 44 32 41 15 146 95 90 29 340 229 149 48 101 17 260 29 68 18 53 37 50 35 39 30 17 463 171 38 292 13 28 13 133 231 93 126 36 23 44 33 246 211 23 188 12 27 27 15 47 26 15 82 26 84 32 53 26 33 36 23 39 61 27 112 88 48 31 25 29 190 279 27 176 143 15 87 46 32 25 29 128 70 32 18 38 22 76 52 104 54 35 80 59 252 27 225 169 24 44 50 111 35 40 145 62 83 35 165 24 27 29 21 50 20 58 29
internal_count=5702 2275 3427 1314 330 984 1054 248 160 128 151 51 100 472 2113 1341 314 253 34 61 512 500 467 447 192 255 119 85 903 641 262 137 65 491 417 332 159 173 94 150 82 43 36 32 134 73 82 76 30 430 39 37 42 72 23 235 163 142 1221 348 338 25 313 44 48 19 45 126 121 98 86 391 51 89 16 54 48 33 26 1027 761 266 80 63 32 17 18 219 76 66 39 772 582 119 80 74 58 752 74 42 85 14 72 22 136 83 78 12 678 596 23 573 327 321 143 89 66 19 57 46 40 14 73 20 315 189 175 74 11 170 24 68 42 84 32 21 44 32 41 15 146 95 90 29 340 229 149 48 101 17 260 29 68 18 53 37 50 35 39 30 17 463 171 38 292 13 28 13 133 231 93 126 36 23 44 33 246 211 23 188 12 27 27 15 47 26 15 82 26 84 32 53 26 33 36 23 39 61 27 112 88 48 31 25 29 190 279 27 176 143 15 87 46 32 25 29 128 70 32 18 38 22 76 52 104 54 35 80 59 252 27 225 169 24 44 50 111 35 40 145 62 83 35 165 24 27 29 21 50 20 58 29
is_linear=0
shrinkage=0.1


Tree=2
num_leaves=253
num_cat=0
split_feature=16 16 16 2 1 16 16 8 8 16 16 16 6 5 16 16 12 16 3 1 16 16 4 3 5 16 16 12 12 16 16 6 5 16 1 12 16 12 6 4 16 3 16 4 16 16 16 16 16 4 8 1 16 3 9 16 6 4 16 12 4 16 16 9 16 4 16 16 16 4 4 16 8 16 5 12 5 5 4 16 9 16 16 3 16 2 16 12 16 4 16 12 4 2 6 16 9 16 6 2 4 9 16 4 1 16 16 16 12 2 16 8 9 9 1 16 16 3 4 16 9 16 9 8 16 3 16 6 6 16 16 16 8 16 16 16 9 16 16 16 2 2 6 16 16 2 16 5 16 16 9 8 3 16 4 8 16 16 13 16 16 16 16 5 16 9 12 16 2 3 2 1 9 16 4 12 9 16 16 1 16 16 9 12 4 8 2 16 8 4 12 6 16 4 16 2 9 4 12 3 12 6 5 16 16 16 4 6 5 3 3 16 5 16 16 16 16 16 16 4 16 9 9 9 4 4 16 16 3 4 16 6 9 4 16 16 16 16 5 16 16 16 2 16 4 16 9 16 16 16 12 4
split_gain=285.636 28.9777 28.0366 8.16707 5.1049 3.99692 4.08639 3.63093 3.18721 6.10243 4.63941 4.18981 6.08947 6.39624 6.63431 3.82548 3.58216 3.559 5.18885 3.95864 3.17859 2.78915 2.55258 2.45053 2.15171 4.22356 9.04295 6.47462 5.37908 2.87711 5.05946 2.12842 1.88966 1.8214 1.814 1.7376 4.0455 1.6606 1.59466 1.93591 1.40553 3.93407 1.45694 1.65861 1.38047 4.18685 1.37678 3.60588 5.84616 1.59587 1.34351 2.62495 1.27434 1.22888 1.92318 3.53444 2.75275 1.17179 1.15884 1.49926 1.7721 1.10488 8.16069 1.07662 2.86064 1.04153 1.59257 1.00277 0.966489 4.58823 4.4202 2.02821 2.47038 0.954059 2.22182 1.37173 0.949222 0.9133 0.868868 1.46704 1.13047 0.86864 1.04474 0.932257 2.73499 2.76667 1.44615 1.21075 1.73403 0.835127 2.0307 1.62962 0.834038 2.67553 1.138 2.30293 0.831747 1.13463 0.77458 4.63713 0.772285 2.39585 0.940755 0.679886 0.664019 2.89306 0.661664 0.649468 1.63257 0.592042 0.553448 0.520451 0.518954 0.430119 3.24815 0.624117 0.421616 2.62659 0.413383 0.47384 3.80804 0.722758 1.65396 0.6554 0.388924 0.387558 0.37329 2.57025 1.54806 0.805014 0.7419 1.72879 0.367578 3.16143 0.671516 5.156 0.709651 0.934627 3.49273 1.08951 0.735404 0.359744 0.35142 0.752694 1.45693 0.353694 0.935071 2.70258 0.568413 2.07284 0.321278 1.60716 0.308094 0.290789 0.275956 0.50952 1.12453 1.46447 0.307115 3.02379 1.96946 0.275678 0.273349 0.264779 0.261602 0.492493 0.265614 0.321013 0.931965 2.1499 0.493219 0.245517 2.55385 0.420241 0.325484 0.244038 0.234206 0.421911 0.224112 0.333981 0.217562 0.21731 0.393317 0.208746 0.208452 0.203247 0.186199 0.18586 0.161151 0.376834 2.5575 0.276475 0.161015 0.698896 0.159905 0.254523 0.15349 0.253349 0.248122 0.15172 0.15125 0.394713 0.150905 0.519257 0.153272 0.135046 1.62857 0.133423 0.130711 0.16582 0.124632 0.154153 0.124427 0.121404 0.113996 0.112037 0.0962565 0.186339 0.180312 0.0905694 0.310415 0.0886047 0.0791189 0.0770841 0.275791 0.138626 0.790783 0.549181 0.0756287 0.0700067 0.0913884 0.0635771 0.0635688 0.0635026 0.0613448 0.0583088 0.0567826 0.054465 0.183163 0.0526831 0.110777 0.101956 0.0828222 0.0614321 0.0487113 0.31193 2.95323 0.125877 0.0534739 0.0468557 0.0932603 0.0623528
threshold=0.45436480813556329 -0.25327308951884836 1.0735479685831739 1.0000000180025095e-35 1.0000000180025095e-35 0.27745533372196041 -0.16481835231204692 1.0000000180025095e-35 1.0000000180025095e-35 0.80818375696276923 1.029320599979773 0.54281954534236487 1.0000000180025095e-35 1.0000000180025095e-35 0.7197290197559677 0.89663849416957075 1.0000000180025095e-35 0.85241112556616994 1.0000000180025095e-35 1.0000000180025095e-35 0.63127428254916629 0.85241112556616994 1.0000000180025095e-35 1.0000000180025095e-35 1.0000000180025095e-35 0.056318490704956703 -0.16481835231204692 1.0000000180025095e-35 1.0000000180025095e-35 1.0000000180025095e-35 -0.076363615105245475 1.0000000180025095e-35 1.0000000180025095e-35 0.36591007092876188 1.0000000180025095e-35 1.0000000180025095e-35 1.6927311290307838 1.0000000180025095e-35 1.0000000180025095e-35 1.0000000180025095e-35 1.6042763918239824 1.0000000180025095e-35 1.5600490232205819 1.0000000180025095e-35 -1.8516501908457506 -1.8551883803340226 0.94086586277297146 0.7197290197559677 0.85241112556616994 1.0000000180025095e-35 1.0000000180025095e-35 1.0000000180025095e-35 -0.032136246501844754 1.0000000180025095e-35 1.0000000180025095e-35 0.32168270232536117 1.0000000180025095e-35 1.0000000180025095e-35 0.76395638835936852 1.0000000180025095e-35 1.0000000180025095e-35 0.58704691394576558 0.49859217673896411 1.0000000180025095e-35 0.98509323137637217 1.0000000180025095e-35 0.89663849416957075 1.5600490232205819 0.10054585930835744 1.0000000180025095e-35 1.0000000180025095e-35 0.27745533372196041 1.0000000180025095e-35 0.36591007092876188 1.0000000180025095e-35 1.0000000180025095e-35 1.0000000180025095e-35 1.0000000180025095e-35 1.0000000180025095e-35 0.41013743953216258 1.0000000180025095e-35 1.3389121802035782 1.1177753371865744 1.0000000180025095e-35 1.1620027057899753 1.0000000180025095e-35 1.2504574429967767 1.0000000180025095e-35 1.2062300743933758 1.0000000180025095e-35 0.49859217673896411 1.0000000180025095e-35 1.0000000180025095e-35 1.0000000180025095e-35 1.0000000180025095e-35 1.3389121802035782 1.0000000180025095e-35 0.41013743953216258 1.0000000180025095e-35 1.0000000180025095e-35 1.0000000180025095e-35 1.0000000180025095e-35 1.1620027057899753 1.0000000180025095e-35 1.0000000180025095e-35 1.029320599979773 0.89663849416957075 1.029320599979773 1.0000000180025095e-35 1.0000000180025095e-35 -0.20904572091544768 1.0000000180025095e-35 1.0000000180025095e-35 1.0000000180025095e-35 1.0000000180025095e-35 0.63127428254916629 1.2504574429967767 1.0000000180025095e-35 1.0000000180025095e-35 1.6927311290307838 1.0000000180025095e-35 1.6042763918239824 1.0000000180025095e-35 1.0000000180025095e-35 1.3831395488069786 1.0000000180025095e-35 0.18900059651515891 1.0000000180025095e-35 1.0000000180025095e-35 0.1447732279117582 0.27745533372196041 0.32168270232536117 1.0000000180025095e-35 1.3831395488069786 1.4273669174103796 1.3831395488069786 1.0000000180025095e-35 1.2062300743933758 1.3389121802035782 1.2504574429967767 1.0000000180025095e-35 1.0000000180025095e-35 1.0000000180025095e-35 1.4273669174103796 1.2504574429967767 1.0000000180025095e-35 1.515821654617181 1.0000000180025095e-35 1.2946848116001772 1.1177753371865744 1.0000000180025095e-35 1.0000000180025095e-35 1.0000000180025095e-35 1.1620027057899753 1.0000000180025095e-35 1.0000000180025095e-35 -0.51863730113925266 -0.47440993253585201 1.0000000180025095e-35 -1.3147299360004656 -1.2705025673970651 1.6042763918239824 1.6485037604273833 1.0000000180025095e-35 1.6485037604273833 1.0000000180025095e-35 1.0000000180025095e-35 1.4715942860137805 1.0000000180025095e-35 1.0000000180025095e-35 1.0000000180025095e-35 1.0000000180025095e-35 1.0000000180025095e-35 0.7197290197559677 1.0000000180025095e-35 1.0000000180025095e-35 1.0000000180025095e-35 0.76395638835936852 0.7197290197559677 1.0000000180025095e-35 1.6485037604273833 1.2504574429967767 1.0000000180025095e-35 1.0000000180025095e-35 1.0000000180025095e-35 1.0000000180025095e-35 1.0000000180025095e-35 0.89663849416957075 1.0000000180025095e-35 1.0000000180025095e-35 1.0000000180025095e-35 1.0000000180025095e-35 1.6485037604273833 1.0000000180025095e-35 1.1620027057899753 1.0000000180025095e-35 1.0000000180025095e-35 1.0000000180025095e-35 1.0000000180025095e-35 1.0000000180025095e-35 1.0000000180025095e-35 1.0000000180025095e-35 1.0000000180025095e-35 1.6485037604273833 1.6485037604273833 1.1177753371865744 1.0000000180025095e-35 1.0000000180025095e-35 1.0000000180025095e-35 1.0000000180025095e-35 1.0000000180025095e-35 1.3831395488069786 1.0000000180025095e-35 0.98509323137637217 1.515821654617181 1.515821654617181 1.4715942860137805 1.2504574429967767 1.515821654617181 1.0000000180025095e-35 1.5600490232205819 1.0000000180025095e-35 1.0000000180025095e-35 1.0000000180025095e-35 1.0000000180025095e-35 1.0000000180025095e-35 0.63127428254916629 0.63127428254916629 1.0000000180025095e-35 1.0000000180025095e-35 0.675501651152567 1.0000000180025095e-35 1.0000000180025095e-35 1.0000000180025095e-35 1.3389121802035782 1.2504574429967767 0.675501651152567 1.5600490232205819 1.0000000180025095e-35 1.4273669174103796 1.515821654617181 1.5600490232205819 1.0000000180025095e-35 1.6042763918239824 1.0000000180025095e-35 1.515821654617181 1.0000000180025095e-35 1.4715942860137805 1.4715942860137805 1.2946848116001772 1.0000000180025095e-35 1.0000000180025095e-35
decision_type=2 2 2 2 2 2 2 2 2 2 2 2 2 2 2 2 2 2 2 2 2 2 2 2 2 2 2 2 2 2 2 2 2 2 2 2 2 2 2 2 2 2 2 2 2 2 2 2 2 2 2 2 2 2 2 2 2 2 2 2 2 2 2 2 2 2 2 2 2 2 2 2 2 2 2 2 2 2 2 2 2 2 2 2 2 2 2 2 2 2 2 2 2 2 2 2 2 2 2 2 2 2 2 2 2 2 2 2 2 2 2 2 2 2 2 2 2 2 2 2 2 2 2 2 2 2 2 2 2 2 2 2 2 2 2 2 2 2 2 2 2 2 2 2 2 2 2 2 2 2 2 2 2 2 2 2 2 2 2 2 2 2 2 2 2 2 2 2 2 2 2 2 2 2 2 2 2 2 2 2 2 2 2 2 2 2 2 2 2 2 2 2 2 2 2 2 2 2 2 2 2 2 2 2 2 2 2 2 2 2 2 2 2 2 2 2 2 2 2 2 2 2 2 2 2 2 2 2 2 2 2 2 2 2 2 2 2 2 2 2 2 2 2 2 2 2 2 2 2 2 2 2
left_child=1 44 3 8 24 6 -6 73 11 61 -11 31 13 15 16 17 199 18 22 58 -21 -16 -13 -14 25 26 27 38 33 30 -26 32 89 53 35 67 40 52 103 -40 42 -42 92 -44 45 -1 47 113 -49 187 51 65 -32 150 68 -56 -57 -19 -20 -60 -61 62 196 64 -23 66 -5 77 69 231 71 -70 -73 -7 75 -75 107 125 79 80 -35 82 200 141 -85 86 87 88 -86 91 112 -2 93 94 95 -37 -80 -98 162 -100 101 102 -79 -3 105 175 -51 108 -67 118 -105 -112 -91 115 -115 184 117 -102 161 121 -121 122 123 -120 -97 -4 128 130 129 -72 185 -132 134 181 135 136 137 140 139 -139 205 -84 145 144 -144 146 147 148 149 -94 151 -27 -29 -142 155 158 -157 -158 -46 -160 -161 -69 -43 -89 166 188 210 170 219 -170 -168 172 173 174 -63 213 177 -173 179 -52 -163 182 -134 -24 -25 -128 244 -50 189 191 -191 -166 207 221 -138 235 197 198 -10 -15 201 -36 203 -123 -204 -127 -207 233 209 -148 -83 -212 -147 -48 -104 -145 217 -96 -218 237 -221 -194 -118 225 -225 226 -201 -227 -205 236 -231 -55 -59 -111 -150 -196 -117 238 -169 -213 -241 -242 243 -243 245 246 -136 -246 -248 250 -88 -251
right_child=2 4 34 50 5 7 -8 -9 9 10 -12 12 23 14 21 -17 -18 57 19 20 -22 63 183 46 29 28 -28 152 -30 -31 37 -33 -34 78 81 36 -38 -39 39 -41 41 98 43 -45 154 -47 104 48 49 106 178 -53 -54 54 55 56 -58 232 59 60 -62 171 -64 -65 -66 76 -68 109 70 -71 126 72 -74 74 -76 -77 -78 100 96 -81 -82 164 83 84 85 -87 249 163 -90 90 -92 -93 142 -95 216 124 97 -99 99 -101 116 -103 214 110 -106 -107 -108 -109 -110 192 111 -113 -114 114 -116 229 222 -119 119 120 -122 202 -124 -125 -126 132 127 -129 -130 -131 131 -133 133 -135 186 -137 194 138 -140 -141 153 -143 143 215 -146 212 208 -149 234 -151 -152 -153 -154 -155 -156 156 157 -159 159 160 -162 180 -164 -165 165 -167 167 168 169 -171 -172 176 -174 -175 -176 -177 -178 -179 -180 -181 -182 -183 -184 -185 -186 -187 -188 -189 -190 190 -192 -193 193 -195 195 -197 -198 -199 -200 223 -202 -203 204 228 -206 206 -208 -209 -210 -211 211 239 -214 -215 -216 -217 218 -219 -220 220 -222 -223 -224 224 -226 227 -228 -229 -230 230 -232 -233 -234 -235 -236 -237 -238 -239 -240 240 241 242 -244 -245 247 -247 248 -249 -250 251 -252 -253
leaf_value=-0.040532597395119004 -0.041752127498659759 -0.041158600086688577 0.0050690793911072809 0.02469742104418075 0.018551943565439231 0.027570290115323512 -0.041489538957740026 -0.041265884768835567 0.016476124348466185 -0.042876889715777126 0.023795134765159751 -0.045181344813705088 -0.044806606869895682 0.035590873318515355 -0.043797185361974668 -0.04051797973330315 -0.044012011855475076 -0.006224097173185587 -0.04062966715563085 0.02897866843025515 -0.042036820846089007 -0.041566173024983527 0.024695622603770995 0.019914965555920004 -0.041765333994969983 -0.040498275044914836 -0.040530587865243897 0.036160726725828748 -0.041844813782801527 -0.040840455738597896 0.014006850891403525 -0.04076539959480191 -0.040990347558730343 0.011946569797250338 0.01886363997909047 -0.040488258658068821 -0.042172309343959311 0.046381771106676906 0.016486726418973086 -0.042139924971367024 -0.044680223316654326 0.028951593334617727 -0.044082018624937241 0.008482097369544082 -0.04053595084802003 0.020209745090139612 0.035262353771512517 -0.04257468208071525 0.028804525353724832 -1.495823734128444e-05 0.016132969983580169 -0.041043302412304937 -0.040504527942234948 0.026893575986317472 -0.041209084763998219 -0.040503942394689005 0.036278215919305426 0.022345738906485751 -0.041339618495719953 0.023648070649588203 -0.042889932814689127 0.038634083404268001 -0.043808165904803117 0.027187257187387556 0.020183566418787463 -0.045700857926308437 -0.040448320629713125 0.036209510100631864 -0.041326168458490783 -0.041657093458074314 -0.002537363448076803 -0.040520928362319589 0.018729457846029623 -0.042981089782651818 0.040450930404707208 0.0086537607380504852 0.039607328519258127 0.037747680543033103 -0.041016156949594283 -0.040516413484223412 -0.040495651984154002 0.039378740341775402 0.020895066282238098 -0.044465884587675503 0.013437263004157497 -0.041286755882040227 0.037784068465447844 0.01400630727271299 -0.04917295728777675 0.012045100803110777 -0.040492552962697395 0.011525683271984539 0.029037290577138927 -0.044811469013578735 0.03327081712958363 0.033845113959842688 -0.041926880014443321 0.017314010538476751 -0.046797353570119146 0.04065386624823325 0.040854697875953902 -0.047004251756852376 0.0088908976524707476 -0.042500273904909819 0.041499491420617304 -0.045535550182690926 -0.04167544397608957 0.033825117951502774 0.024254687484364296 0.03537839243776409 -0.0040344752996448168 -0.040491840953763653 0.043138054232213022 -0.045722826471730434 0.043067196576896928 0.02830825517673562 0.035471124200328157 -0.043549544371375655 0.0081224766753367501 -0.05041485422995317 0.0423671161158021 0.010336070499524166 -0.040499649397749367 0.040740492074112865 0.010144966736688835 0.019054283654440271 0.027166238442982927 -0.040500880479727878 0.024073988387191308 -0.041438558347818066 -0.040395943605557538 0.017329307877175858 0.019163991102681813 -0.04862256591538798 -0.048711761890726971 -0.04758635481157282 0.04044978431199623 -0.002191765511634271 0.02810384381213174 -0.042048441726152373 0.02307273167875518 0.041562861736285095 0.016918357318922019 0.033467158184575088 -0.040379626222304267 0.028664774374966506 0.042034098382779911 -0.048981326297398875 0.035726644318985028 -0.0404861020326652 0.027994844454947855 0.02695597996258774 0.018945319612444011 0.03964439198316403 -0.040586406050305369 -0.040532028212047586 0.0020968402256076302 -0.040522599973598306 -0.040633514670431768 0.017945947337452816 -0.0405148430203617 0.015429431934241955 0.041272959682031068 0.033510942683837905 0.021770463614335791 0.043900040587511138 0.012353331996672955 0.025875155130396999 0.033313484720609625 -0.044703651209427299 0.040333142999719934 0.018218529917750522 -0.046490976824619223 0.011831706148327089 0.023642212654133007 0.015383370179094032 0.041115499847771415 0.04043119743175521 0.038188228183759838 0.040448409110964118 0.029675495792390927 0.040759487520832714 0.040833277111249795 0.042409180131300087 0.0035061925023101232 0.014083559320713519 0.014236632573200462 0.014597646714766894 0.034553221752363764 -0.045263454102088617 0.031268647281306981 0.045201534679658796 0.032454286783393786 0.007179725058403686 0.026898994717871168 0.038612975333852911 0.041199029739597645 0.040450930404707208 0.034228865977680059 -0.001416877627824659 0.040424333288482328 0.041452525257535226 0.042416771660050409 0.04044663076785554 0.028549918637704647 -0.041583719024802429 0.024290806826255326 0.027920403335460277 0.046769952284058787 0.025388550924571346 0.04082958629302455 0.02772570778309412 0.042281264890958785 0.025390238179313098 0.020808828954715669 0.020049232961410913 0.045858290086890546 0.015577225243164664 0.024907138038388236 0.036964184604438781 0.018924534651583391 0.0455116496608826 0.026897767575512141 0.036483806405429746 0.019201181572137186 0.040656330373719143 0.026702955794733241 0.01579571756253181 0.030180095827905075 0.023475738125288709 0.033356411284754466 0.035901603607032324 0.031597158224689392 0.041267201405383702 0.026680426367959684 0.017986206823994728 0.020296108790635422 0.040201996421551429 0.042684537770200821 0.04325552519725482 0.025429382742009156 0.040826803363515123 0.028909493219065635 0.032938815687712085 0.031520328639359628 0.035418054420899764 0.04208551245657232 0.022189414358353282 0.031922792810721821 0.025232494390096689 0.027271131391638261 0.034585867242636396
leaf_weight=39 12 29 15.999999999999998 9.9999999999999982 17 56 34 10.999999999999998 20 30 15.999999999999998 4.9999999999999991 6.9999999999999991 11.999999999999998 25 47 7.9999999999999991 15.999999999999998 72 21.000000000000004 8.9999999999999982 15 15 15.000000000000002 31 5.0000000000000009 172 19 48 90 14.999999999999998 30 14.999999999999998 23.000000000000004 15.000000000000002 8.9999999999999982 10.999999999999998 10.999999999999998 19 8.0000000000000018 6.9999999999999991 26 7.9999999999999991 24 318 15.999999999999998 25 28 27 16.000000000000004 13 6.9999999999999991 6.0000000000000027 23 35 7.0000000000000009 14 14.000000000000002 14.999999999999998 12.000000000000002 5.9999999999999991 29 20 9.9999999999999982 15 4.9999999999999991 5.9999999999999991 54 36 11.999999999999998 13 12.000000000000002 17 9 11.999999999999998 12 35 30 26 10.999999999999998 4.9999999999999991 60 12.999999999999998 6.9999999999999991 12.000000000000002 6.9999999999999991 29 15 6.9999999999999991 23.000000000000004 6.9999999999999991 11 15.000000000000002 7.9999999999999991 11.000000000000002 8.9999999999999982 5.9999999999999982 7 7.9999999999999991 25 14.000000000000002 4.9999999999999991 21 8.0000000000000018 20 5.9999999999999991 4.9999999999999991 10 10 31 18.000000000000004 4.9999999999999991 6.9999999999999991 7.0000000000000009 10 20 112 4.9999999999999991 14.000000000000004 7.0000000000000009 12 13.999999999999998 4.9999999999999991 11 30 23 35 8.9999999999999982 13.999999999999998 9 7.0000000000000027 20 19 4.9999999999999991 5.0000000000000027 11.999999999999998 10.999999999999998 16.000000000000004 35 11.999999999999998 19 24 17.000000000000004 13 5.9999999999999991 14 10 5.9999999999999991 13.000000000000002 5.9999999999999991 13.000000000000002 12 23 24 595 43 19 13.999999999999998 152 16.000000000000004 8.9999999999999982 13.999999999999998 59 13 18.000000000000004 12.999999999999998 21 13 12.000000000000002 4.9999999999999991 9.0000000000000018 22 4.9999999999999991 13.999999999999998 29 13.999999999999998 17 13.999999999999998 66 10 46 27 14.999999999999998 12 15.999999999999998 18 14.999999999999998 13.999999999999998 8.9999999999999982 6.0000000000000027 15.999999999999998 6.9999999999999991 10 10.000000000000002 13.000000000000002 12.999999999999998 10.999999999999998 11.999999999999998 12.999999999999998 13.999999999999998 31 15.999999999999998 15.999999999999998 9.9999999999999982 15.999999999999998 5.0000000000000009 15 12.999999999999998 7.9999999999999991 15 26 21 13 25 12.999999999999998 12 7.0000000000000009 12.999999999999998 10 36 12.999999999999998 11 11.999999999999998 18 19 15.999999999999998 35 20 26 12.999999999999998 34 11.999999999999998 15.999999999999998 46 18 17 15.999999999999998 40 13 9.9999999999999982 18 19 21 21 19 29 10 61 11 15.999999999999998 11.999999999999998 13.000000000000002
leaf_count=39 12 29 16 10 17 56 34 11 20 30 16 5 7 12 25 47 8 16 72 21 9 15 15 15 31 5 172 19 48 90 15 30 15 23 15 9 11 11 19 8 7 26 8 24 318 16 25 28 27 16 13 7 6 23 35 7 14 14 15 12 6 29 20 10 15 5 6 54 36 12 13 12 17 9 12 12 35 30 26 11 5 60 13 7 12 7 29 15 7 23 7 11 15 8 11 9 6 7 8 25 14 5 21 8 20 6 5 10 10 31 18 5 7 7 10 20 112 5 14 7 12 14 5 11 30 23 35 9 14 9 7 20 19 5 5 12 11 16 35 12 19 24 17 13 6 14 10 6 13 6 13 12 23 24 595 43 19 14 152 16 9 14 59 13 18 13 21 13 12 5 9 22 5 14 29 14 17 14 66 10 46 27 15 12 16 18 15 14 9 6 16 7 10 10 13 13 11 12 13 14 31 16 16 10 16 5 15 13 8 15 26 21 13 25 13 12 7 13 10 36 13 11 12 18 19 16 35 20 26 13 34 12 16 46 18 17 16 40 13 10 18 19 21 21 19 29 10 61 11 16 12 13
internal_value=0 -0.0278613 0.0178446 0.0063747 -0.015714 0.00130479 -0.0214758 0.0129234 0.00331503 0.013243 -0.0196866 0.000503901 0.00301329 -0.00425462 0.00886139 -0.014697 0.0209734 -0.00899858 -0.0157827 -0.0243645 0.0076707 -0.0175984 0.0204202 0.0136865 -0.0185598 -0.0163549 -0.0255201 -0.00550547 -0.0102104 -0.0293677 -0.0129761 -0.018256 -0.00925026 -0.00642333 0.0249772 0.0230088 0.017681 0.0149156 -0.0210712 -0.000888545 0.019249 0.0281361 0.0154829 -0.00466358 -0.0383472 -0.0228619 0.0150037 0.0107574 -0.00465325 0.0124745 0.0266888 0.0175352 -0.00157354 -0.0031113 -0.00508506 -0.0217512 0.0106807 0.0156296 -0.0335173 -0.0179958 0.0014632 0.0205965 0.0110172 -0.00122082 -0.010693 0.0229329 0.000262952 0.025249 -0.00114672 0.0116922 -0.00432288 -0.0254734 -0.0057906 0.0196228 0.00613413 -0.0134802 0.0289777 0.0229176 -0.0201375 -0.00958138 0.00257654 0.0293393 0.0243836 0.0202882 0.0163282 0.0197618 0.0234158 0.00984644 -0.00963627 -0.00131259 0.00798887 -0.0162744 0.0179342 0.0105666 0.0155465 0.00509485 -0.0306911 -0.0100333 0.0324573 0.0194498 0.0283238 0.0196324 0.0248415 -0.0301526 0.0254298 0.0208359 -0.0099414 0.0140914 0.000928995 0.0294465 -0.0198518 -0.0119668 0.0193059 0.0213446 0.00650401 0.0235573 0.0325167 0.0186377 0.0266187 0.0227848 0.00818017 0.0252619 0.0119781 0.0224795 0.0156177 0.0203533 0.00667598 0.0101514 -0.00191621 -0.0184571 0.0158519 0.00235897 0.0209206 0.0277898 0.0196782 0.0160948 0.0198602 0.0162999 0.00704561 -0.0192775 0.0230784 0.0343049 0.022239 0.0150223 0.00196574 0.0251739 0.0221893 0.0145412 0.0218746 0.00916874 0.0161635 0.00711065 0.0267365 0.0323254 -0.0390775 -0.0375049 -0.0298762 -0.0159874 -0.0386758 -0.0353329 -0.00310368 0.0310232 0.0375059 0.0230662 0.0320084 0.026365 0.0330957 0.0300963 0.032219 0.0103611 0.0207524 0.0261961 0.0225873 0.0273872 0.0311407 0.0270612 0.0314365 0.026861 0.0352238 0.0267111 0.0263529 0.0340564 0.0287284 0.0325745 0.0114478 0.0227247 0.0248137 0.0239557 0.0222909 0.0199395 0.0103909 0.0283386 0.0351711 0.0289432 0.0296819 0.0269231 0.0305998 0.0280047 0.0234736 0.0248546 0.0354784 0.030527 0.0301208 0.0266823 0.0354887 0.0138287 0.00781613 0.0373146 0.0356275 0.0320536 0.0355741 0.0338942 0.0352272 0.0303292 0.0134501 0.0270317 0.0277806 0.0236918 0.0335446 0.0354496 0.0321805 0.0393027 0.0346425 0.0237972 0.0276126 0.0221349 0.0186694 0.0268488 0.0330369 0.0280792 0.0306261 0.0299866 0.0272841 0.0388987 0.030479 0.0218521 0.0247505 0.0378742 0.0342862 0.0322532 0.0333199 0.0320597 0.034014 0.0366901 0.0259884 0.0282859 0.0203258 0.0244073 0.0367707 0.0325253 0.0347107 0.0294304
internal_weight=0 2275 3427 1314 1054 151 51 100 1142 252 46 890 785 467 207 260 142 213 167 135 30 65 32 318 903 750 301 129 449 153 63 105 75 401 2113 1456 431 32 87 27 420 125 295 32 1221 55 311 221 90 62 172 83 21 323 293 56 21 46 105 33 18 206 76 40 30 76 16 1025 237 47 190 65 29 89 33 21 60 659 78 39 28 657 230 168 131 124 117 47 19 60 37 23 263 97 89 48 39 13 118 33 212 69 64 60 90 70 21 25 15 366 31 23 30 131 17 114 143 19 245 131 19 112 30 25 39 447 125 89 36 22 80 27 431 66 365 215 203 149 63 28 86 37 166 48 23 118 91 58 52 21 30 17 42 43 1166 571 76 33 495 177 25 114 85 28 427 69 358 162 132 17 30 130 77 72 58 64 53 36 89 23 60 61 34 27 31 53 150 41 56 47 22 25 121 31 54 43 56 45 33 134 62 31 82 50 32 43 20 90 33 25 196 136 27 50 34 25 41 24 17 115 49 21 124 122 37 85 49 36 36 83 47 35 30 77 31 30 36 66 26 110 89 79 61 40 135 55 26 80 21 70 41 29
internal_count=5702 2275 3427 1314 1054 151 51 100 1142 252 46 890 785 467 207 260 142 213 167 135 30 65 32 318 903 750 301 129 449 153 63 105 75 401 2113 1456 431 32 87 27 420 125 295 32 1221 55 311 221 90 62 172 83 21 323 293 56 21 46 105 33 18 206 76 40 30 76 16 1025 237 47 190 65 29 89 33 21 60 659 78 39 28 657 230 168 131 124 117 47 19 60 37 23 263 97 89 48 39 13 118 33 212 69 64 60 90 70 21 25 15 366 31 23 30 131 17 114 143 19 245 131 19 112 30 25 39 447 125 89 36 22 80 27 431 66 365 215 203 149 63 28 86 37 166 48 23 118 91 58 52 21 30 17 42 43 1166 571 76 33 495 177 25 114 85 28 427 69 358 162 132 17 30 130 77 72 58 64 53 36 89 23 60 61 34 27 31 53 150 41 56 47 22 25 121 31 54 43 56 45 33 134 62 31 82 50 32 43 20 90 33 25 196 136 27 50 34 25 41 24 17 115 49 21 124 122 37 85 49 36 36 83 47 35 30 77 31 30 36 66 26 110 89 79 61 40 135 55 26 80 21 70 41 29
is_linear=0
shrinkage=0.1


Tree=3
num_leaves=253
num_cat=0
split_feature=16 16 16 7 14 14 16 3 16 14 2 16 0 3 16 14 0 14 16 14 14 14 16 16 7 12 14 7 9 16 14 0 14 14 0 14 14 16 16 12 14 16 14 14 16 16 14 14 14 12 6 16 14 0 14 14 6 14 14 14 14 14 14 14 14 14 16 16 9 16 14 14 16 16 14 14 14 12 14 16 2 14 14 6 14 14 12 14 7 14 14 14 14 14 14 14 12 14 0 14 14 14 14 16 3 14 14 14 6 12 14 14 12 0 14 14 16 0 7 6 14 16 16 14 16 6 16 14 14 3 16 16 14 2 14 16 14 14 14 0 16 16 14 9 9 16 14 14 16 16 14 16 14 14 9 16 0 14 14 14 14 14 16 14 9 16 14 14 14 14 14 14 14 12 14 14 12 9 16 16 3 14 14 14 16 14 14 7 7 14 16 16 6 14 14 16 14 14 14 16 14 14 14 14 16 14 7 14 14 14 0 14 14 16 14 16 6 14 0 14 16 2 14 14 14 9 3 14 14 16 14 12 16 14 9 6 14 14 16 16 14 16 14 6 14 16 2 14 14 14 14 14
split_gain=231.371 23.4716 22.7105 13.5521 6.85597 6.54676 4.25138 3.26733 4.00898 3.10257 4.83917 3.07874 4.83621 4.9108 4.11705 5.37708 4.15788 2.93272 2.63911 4.77807 4.66214 3.00018 2.63737 2.61434 2.35373 2.2688 2.20136 2.11966 2.43356 2.11384 2.07854 2.26957 1.98125 3.55647 2.61409 6.14049 5.63201 2.09485 2.71902 1.94629 1.90771 1.71673 1.71669 1.69168 1.60157 2.06237 3.85814 1.54112 4.40895 2.22662 1.53656 1.4683 4.59748 2.9222 1.43185 2.05988 1.37935 3.44421 1.3401 3.24063 1.32263 1.49445 3.21926 3.82196 3.02615 1.92508 2.90326 1.31438 2.55409 1.30867 1.29086 4.98951 2.53764 2.94407 1.33986 3.32741 1.28081 5.34244 3.51644 1.21168 2.51868 1.18666 2.41973 1.17466 1.17431 2.79413 2.22032 2.19264 1.75578 1.32643 2.10518 1.12252 3.19104 1.10778 2.09609 1.77308 1.4638 1.10624 1.56588 1.08422 3.48077 1.85599 3.89756 3.50816 3.41091 1.09706 2.39454 1.09619 2.20584 1.07652 2.90855 1.03499 1.32437 1.4156 2.47931 2.01708 3.24425 1.00302 4.00073 2.63022 0.972007 3.22094 1.35625 1.37091 0.935792 1.22544 1.9768 0.810552 2.15257 0.806236 2.53417 0.667697 1.59492 0.622751 0.672702 2.16012 0.619679 0.6019 2.5075 0.596515 2.30221 0.983531 2.48072 2.92862 0.5902 2.61525 1.26299 3.75152 0.585854 3.77599 0.584117 2.01296 0.580958 2.04305 0.549269 1.27333 0.541772 0.541608 1.62341 0.51733 2.94754 0.475977 0.461753 0.454692 1.98207 0.442262 2.99797 0.433233 0.408888 0.387622 0.379576 0.349647 0.334584 0.331472 0.327625 0.450731 2.6987 0.325356 1.12067 2.87245 0.430354 4.47099 0.458069 3.51507 0.318343 0.300872 1.26758 1.14959 0.278553 0.981285 2.63797 0.454129 2.24725 0.423102 0.336116 0.264742 0.248861 0.355935 0.245954 0.24094 0.374788 3.22262 0.325559 0.233819 1.78525 0.228474 1.15411 1.65207 0.322563 2.99027 0.411216 4.07573 0.339509 0.228078 0.271839 0.219736 0.345698 0.45524 0.200543 0.231091 0.249364 0.509034 0.192303 1.77918 0.188571 0.182845 0.180339 0.178752 0.318163 0.176479 0.173925 0.171681 0.160281 0.338159 0.538518 2.26589 0.15195 0.430294 0.233741 0.373373 0.147807 0.598473 0.126294 0.112865 0.111654 0.223638 0.107853 0.153867 0.295879 0.149744 0.104512 0.0891938
threshold=0.45436480813556329 -0.25327308951884836 1.0735479685831739 1.0000000180025095e-35 2.0062736361780726 0.085521143558261875 0.76395638835936852 1.0000000180025095e-35 0.54281954534236487 2.5707721265927264 1.0000000180025095e-35 0.18900059651515891 1.0000000180025095e-35 1.0000000180025095e-35 -0.16481835231204692 -0.10363885528373736 1.0000000180025095e-35 1.3071656661438071 1.3389121802035782 -0.18093716187416323 -0.7865141809340136 -0.99875324560086887 1.2062300743933758 0.27745533372196041 1.0000000180025095e-35 1.0000000180025095e-35 -1.0326540743483841 1.0000000180025095e-35 1.0000000180025095e-35 0.41013743953216258 2.6020227276857129 1.0000000180025095e-35 -0.97567417977601301 -0.83576424484734224 1.0000000180025095e-35 -0.12406769345406414 -0.20191813080585014 0.675501651152567 0.76395638835936852 1.0000000180025095e-35 -0.84382535396320091 0.23322796511855967 0.028209970529074875 -0.83046378953828437 0.89663849416957075 0.76395638835936852 3.1240071494756312 1.2543819653577735 -0.21075222298761306 1.0000000180025095e-35 1.0000000180025095e-35 0.58704691394576558 1.2375971902124234 1.0000000180025095e-35 -0.18557506026958862 -0.51884118782659616 1.0000000180025095e-35 -0.56787039943538054 -0.3442574410845059 -0.29136331414620015 1.7694095395545537 -0.091491978533813204 -0.053947086761320588 1.4210150291362769 -0.69684814528911976 -0.730638547884363 0.41013743953216258 0.94086586277297146 1.0000000180025095e-35 -0.076363615105245475 -0.66206390732342812 -0.66305774269387641 -1.8481120013574786 -1.8551883803340226 -1.06280041391865 -1.0704198184254208 0.36368462113152317 1.0000000180025095e-35 0.64770068477520204 0.80818375696276923 1.0000000180025095e-35 -0.49388487741311576 -0.5064734587721279 1.0000000180025095e-35 -0.4240955491771885 0.75028658023592432 1.0000000180025095e-35 -0.5064734587721279 1.0000000180025095e-35 -0.90224078851510836 -0.94276718639894597 0.12538498452846739 0.26363852717305764 -0.77734881029543479 -0.68646808697554829 1.6323706845849555 1.0000000180025095e-35 0.52656319573277754 1.0000000180025095e-35 -0.60331719431470454 -0.58200494692620131 -0.36225690390484788 -0.53297573531741682 1.6927311290307838 1.0000000180025095e-35 -1.0704198184254208 -1.1049832040865681 0.87098236466926104 1.0000000180025095e-35 1.0000000180025095e-35 -0.99742813177360434 1.9813173257645926 1.0000000180025095e-35 1.0000000180025095e-35 2.4661985603911067 2.2403770789947917 1.5600490232205819 1.0000000180025095e-35 1.0000000180025095e-35 1.0000000180025095e-35 1.7694095395545537 0.85241112556616994 0.94086586277297146 2.1925625550609991 0.056318490704956703 1.0000000180025095e-35 0.10054585930835744 2.5540977775996487 3.2045078144819459 1.0000000180025095e-35 1.1177753371865744 0.85241112556616994 -0.036941459311426984 1.0000000180025095e-35 2.2403770789947917 1.5600490232205819 -0.5895139252806999 -0.63821185843266803 -0.20191813080585014 1.0000000180025095e-35 1.3831395488069786 1.6042763918239824 -0.14858229925845631 1.0000000180025095e-35 1.0000000180025095e-35 1.6927311290307838 2.0861117442707555 3.4031644624193409 0.58704691394576558 0.49859217673896411 -0.22046972438755244 0.36591007092876188 -0.18226227570142753 -0.35651474398670185 1.0000000180025095e-35 0.63127428254916629 1.0000000180025095e-35 -0.44319927352025096 -0.43811967051573736 -0.60331719431470454 -0.62021239561232611 2.0188622175370852 1.6927311290307838 -0.37992508826837373 1.0000000180025095e-35 1.4273669174103796 0.073815971417426088 -0.020046258013805326 1.4210150291362769 -0.99742813177360434 -0.90224078851510836 -0.54777283972186985 -0.10363885528373736 1.0000000180025095e-35 -0.71760826191626259 -0.52690229694245494 1.0000000180025095e-35 1.0000000180025095e-35 1.4715942860137805 1.6485037604273833 1.0000000180025095e-35 -0.83576424484734224 -0.75029440298878558 -0.79159378393852742 0.1447732279117582 -0.3442574410845059 -0.19220062940591096 1.0000000180025095e-35 1.0000000180025095e-35 0.17849996377131702 1.5600490232205819 1.4715942860137805 1.0000000180025095e-35 0.82360954534455699 0.15232896568284437 0.7197290197559677 -1.0047162578235587 -1.0534141909755268 -0.23559810724882155 1.5600490232205819 0.073815971417426088 0.36368462113152317 1.0000000180025095e-35 -0.40035392643870049 0.23322796511855967 2.4661985603911067 1.0000000180025095e-35 2.2079117902268126 2.658892196105811 2.7703121837482971 1.0000000180025095e-35 2.8620763162863594 2.8620763162863594 1.6042763918239824 -0.1675755974492468 0.675501651152567 1.0000000180025095e-35 2.283443278380886 1.0000000180025095e-35 0.096674184937737676 0.98509323137637217 1.0000000180025095e-35 -0.71760826191626259 -0.69209982074142229 -0.56787039943538054 1.0000000180025095e-35 1.0000000180025095e-35 2.131607319006835 2.6733580220534483 1.029320599979773 -0.21075222298761306 1.0000000180025095e-35 1.4715942860137805 2.9178415231837378 1.0000000180025095e-35 1.0000000180025095e-35 -0.99742813177360434 -0.88567686567430293 1.6042763918239824 1.4273669174103796 2.3033199857898525 1.4273669174103796 -0.035726771636434583 1.0000000180025095e-35 1.4210150291362769 1.4715942860137805 1.0000000180025095e-35 -0.50205641268124657 -0.44319927352025096 -0.43811967051573736 2.5116941351271862 0.46814776118087015
decision_type=2 2 2 2 2 2 2 2 2 2 2 2 2 2 2 2 2 2 2 2 2 2 2 2 2 2 2 2 2 2 2 2 2 2 2 2 2 2 2 2 2 2 2 2 2 2 2 2 2 2 2 2 2 2 2 2 2 2 2 2 2 2 2 2 2 2 2 2 2 2 2 2 2 2 2 2 2 2 2 2 2 2 2 2 2 2 2 2 2 2 2 2 2 2 2 2 2 2 2 2 2 2 2 2 2 2 2 2 2 2 2 2 2 2 2 2 2 2 2 2 2 2 2 2 2 2 2 2 2 2 2 2 2 2 2 2 2 2 2 2 2 2 2 2 2 2 2 2 2 2 2 2 2 2 2 2 2 2 2 2 2 2 2 2 2 2 2 2 2 2 2 2 2 2 2 2 2 2 2 2 2 2 2 2 2 2 2 2 2 2 2 2 2 2 2 2 2 2 2 2 2 2 2 2 2 2 2 2 2 2 2 2 2 2 2 2 2 2 2 2 2 2 2 2 2 2 2 2 2 2 2 2 2 2 2 2 2 2 2 2 2 2 2 2 2 2 2 2 2 2 2 2
left_child=1 70 3 5 6 26 7 40 93 51 -11 14 27 23 15 16 24 18 19 20 21 -4 -21 225 54 97 -2 39 29 47 31 124 169 -34 35 37 56 -35 50 41 -5 -13 131 -30 45 46 -6 48 49 150 137 52 -7 161 55 109 79 67 -40 -60 61 64 -63 -64 65 66 -43 68 -58 -33 71 72 73 -1 75 -74 218 78 -78 148 -81 82 -26 -15 87 -86 -87 89 184 90 -71 -85 -93 -9 -95 96 -96 98 -24 105 -101 102 173 104 -104 106 -20 139 -109 110 -3 244 133 115 -115 243 -117 129 119 171 121 -80 215 -124 -16 159 -127 -116 -129 -22 -131 132 -37 144 135 -135 -132 -39 -139 140 -103 165 198 -144 145 205 -146 -148 149 230 151 170 153 163 -10 -156 -123 -59 -159 160 -126 -54 177 164 -138 166 -142 -134 -49 -28 -29 -119 -133 224 -150 176 -176 180 -179 -180 181 -107 183 196 -89 -167 187 -187 189 190 191 242 -193 251 213 -42 197 -182 -143 200 202 -202 -188 204 -172 206 240 -208 250 -210 211 -211 -212 214 -190 -122 217 -217 219 -53 221 -221 -184 -224 -102 -14 -136 -47 -229 -12 -36 -173 233 234 235 -228 -198 -238 239 -239 241 -113 -141 -114 245 -19 247 -177 -249 -250 -207 -191
right_child=2 11 17 4 44 9 -8 8 154 10 229 12 13 83 30 -17 -18 111 99 22 117 -23 25 -25 81 -27 32 28 43 -31 -32 69 33 34 36 42 -38 38 58 -41 195 60 -44 -45 -46 227 -48 168 -50 -51 -52 76 53 -55 -56 -57 57 157 59 -61 -62 62 63 -65 -66 -67 -68 -69 -70 84 -72 -73 74 -75 -76 -77 77 -79 120 80 -82 -83 -84 91 85 86 -88 88 -90 -91 -92 92 -94 94 95 -97 -98 -99 -100 100 101 107 103 -105 -106 162 -108 108 -110 -111 -112 112 113 114 127 116 -118 118 -120 -121 122 156 123 -125 125 126 -128 128 -130 130 136 172 167 134 226 -137 152 138 -140 188 141 142 143 -145 146 -147 147 -149 174 -151 -152 -153 -154 -155 155 -157 -158 158 -160 -161 -162 -163 -164 -165 -166 185 -168 -169 -170 -171 203 231 -174 -175 175 246 -178 178 179 -181 182 -183 222 -185 -186 186 199 -189 194 193 -192 192 -194 -195 -196 -197 236 -199 -200 -201 201 -203 -204 -205 -206 208 207 -209 209 210 212 -213 -214 -215 -216 216 -218 -219 -220 220 -222 -223 223 -225 -226 -227 232 228 -230 -231 -232 -233 -234 -235 -236 -237 237 238 -240 -241 -242 -243 -244 -245 -246 -247 -248 248 249 -251 -252 -253
leaf_value=-0.036472180975045107 -0.038530396291254765 0.035338858102060368 0.023451817092672807 -0.038511209754123955 -0.039059296189216011 -0.039595761636366418 -0.037741302775966032 -0.037298148693239351 -0.036800618310115801 -0.039766737633879543 0.020160561346432303 -0.037252362480574119 0.02011901329184191 -0.038415619999634332 -0.036878884299975934 -0.039524286743373271 -0.03866713654683774 0.041060444458466135 0.031357022913277931 -0.042184413747911216 0.037609840018450871 -0.038699154834084058 -0.042541875889625477 -0.041275869763386153 -0.038559834851984116 -0.039663614084071812 0.020280702374487512 0.039438906536088419 0.024017404131433166 -0.038317856032364796 0.014932457001408612 -0.036434061163616145 -0.038121861510890455 -0.038820887273412791 0.024308878804314024 -0.03921363446125891 -0.039325482249064965 0.032686828731541481 -0.038676350575718138 -0.037198114953759943 0.019841794519897885 -0.03838957267160148 -0.037533355330470287 -0.036874877922234102 -0.036452983796352575 0.03646843619834713 0.03265222060311631 0.041337916445412314 -0.039614410995026425 -0.041106966743182788 -0.040610274082405112 0.039752414571111436 0.035564278682155469 -0.043721882533692101 0.037503529374183053 -0.040185611812346284 -0.042268297273147709 -0.039099698450143938 0.043903491608414016 -0.039721323145618187 -0.036409196747306881 0.039996186054709448 -0.038066349851819753 0.033079058929861675 -0.037999639466319166 0.043168006746101606 0.026000812540482528 0.035039472661053159 0.031971699790335269 -0.037577928770006319 -0.03656574891853178 0.040238826758479423 -0.036473679100662112 0.032202698640409012 -0.036516123622715474 0.022560420882532455 -0.040290915421413706 -0.038983747075346381 -0.043532176799253072 -0.036881239010104254 0.038377890608629672 -0.038872303894057582 0.041921461154691531 -0.037356375783582287 -0.036681222030345947 -0.039242714944820692 0.035237039826770969 0.017797059136196194 -0.037080506666970048 -0.037011191676046294 0.026386545055619111 0.038763796897284347 -0.041104933470742316 0.039249329751463946 -0.038171151755019728 0.038827211234362544 0.0098490703123426185 0.037279450166107418 0.020945246514245518 -0.042332125204702316 0.036185166782956454 -0.046629776337856088 0.018671722720926074 0.027483540769812909 -0.042646324365775021 0.037087223692780114 -0.039254898555264241 -0.050183392814022655 0.029998443375982349 0.036805465480063748 -0.036380573168136615 0.035525952158245402 0.037345493620492325 -0.042872768865224453 0.042095765486307377 -0.040874042353648249 0.028810061010883643 0.017497456620454134 -0.042009620531109029 -0.039867188306646859 0.037790164098692305 0.013046562888890837 -0.04055796530840363 0.022568398252847593 -0.037914878588985686 0.017658400200528019 -0.041609919508905926 -0.03989581394823611 0.029861595525667237 -0.047014630859931079 0.035244489072622211 0.038890722729422504 0.036407458397091204 -0.041708807165263033 0.021403850668915238 0.036494207981460983 -0.039498907950181211 -0.039615502881083349 0.040161340999907244 0.034859729094454145 -0.047373828724426512 0.018985789069571195 -0.042998389254713713 0.036199531426455621 0.038132103885774038 -0.045099301070556444 -0.046848112497850959 0.037761062215721716 0.042072645970919427 -0.03926612103675374 0.039821261501674282 -0.037223886709103836 0.036803700231467049 -0.041573390508273404 0.025649400209105534 -0.037267870876350487 0.039615798934756016 0.0279262742846977 -0.04293448291992618 -0.037198936660902848 0.041975259069904236 0.014062783457493819 0.0068906554467973204 0.039865729182779974 0.0364065757865598 0.039032324243859634 0.0380547019997617 0.010912954652305807 0.01693906411809978 0.042818216933562893 0.02628755548730434 0.039027789932451325 0.01795017186027827 0.01361434448468965 -0.043744119588001021 0.039283753222959072 0.036389466160859273 0.034683283271843515 -0.043966917512206778 0.036403911761807309 0.037639430807885087 -0.047660284287073584 0.037806394912117042 -0.049430465660004003 0.040538854301003971 -0.041701210709842805 0.018579924057058977 0.019397975201302223 0.037832707680978503 0.029656344355376469 -0.042202430050486371 -0.047073482101260472 0.030996746409802663 0.012960738130403885 0.018488879074223405 0.039780780928336874 0.040017824317930314 0.012288065822972538 0.037427007482754397 0.034168719111521882 -0.04881511542131825 0.034718705793619478 0.035971377058304395 0.027243522438165441 -0.040493242102905606 0.02899557638137203 0.02194968612796085 -0.048422494561050348 -0.049188022785767428 0.037214613015070869 0.02336426810939677 -0.053873899114063588 0.038440477196264693 0.037601460694186066 0.015500426750613383 0.0079784581894459024 0.036082189725646162 0.030625991868384252 0.036818710401511058 0.0097014059582012802 0.038382662521405785 0.037006347473745101 -0.027597113038275126 0.033254555829681391 0.023353871599474253 0.037651524002818577 -0.043953540389059631 0.015751217207074633 0.041574212041492864 0.038700472953093153 0.040392714995787254 0.025444541755057528 0.038514169253378389 0.038125187649344222 0.041337024382169463 0.033140341085907125 0.012614248094458339 0.033862051522197914 0.038447255569813765 0.013227850972291967 0.034545862232698697 -0.00028300061183874297 0.022921793689085753 0.027113990689771279 0.034722579194898406 0.020571683257039237 0.036547914839549861 0.01059598648796637 0.036591919638377761 0.023861809805639383 0.037400458401831281 0.038670284738012713
leaf_weight=12 11.999999999999998 13 11.999999999999998 4.9999999999999991 15 14.999999999999998 88 5.9999999999999991 60 21 12 14.999999999999998 13.000000000000004 86 145 36 19 8.0000000000000018 12.000000000000002 21 54 22 6.0000000000000009 6.9999999999999991 6.9999999999999991 9.9999999999999982 21 11.999999999999991 6.0000000000000027 7.9999999999999991 12.999999999999998 27 20 34 12.999999999999998 4.9999999999999991 20 15.999999999999998 29 22 15 13.999999999999993 4.9999999999999991 19 5.9999999999999991 24 15 22 15.999999999999998 5.9999999999999991 4.9999999999999991 13.999999999999998 39 5.9999999999999991 31 6.9999999999999991 8 13.000000000000002 8.0000000000000018 10.999999999999998 9.9999999999999982 25 18 13.000000000000002 23 11.000000000000005 14 27 11 9 873 9.9999999999999982 30 13 269 13.999999999999998 7.9999999999999991 13.999999999999998 7.9999999999999991 10 8 10.999999999999998 8.0000000000000018 14.999999999999998 42 6.0000000000000009 12 14.000000000000004 4.9999999999999991 20 12 10.000000000000002 9.9999999999999982 14.999999999999998 15 6.9999999999999991 11 13.000000000000002 11 8.9999999999999982 28.999999999999996 4.9999999999999991 12.999999999999998 19 30 28 7.9999999999999991 5.9999999999999973 8 18 10 14.000000000000002 39 9.9999999999999982 8.0000000000000018 11.000000000000002 17 17 10.999999999999998 5.9999999999999991 66 14.000000000000002 4.9999999999999991 10.999999999999998 20.000000000000004 15.000000000000002 8.9999999999999982 7.0000000000000009 12 4.9999999999999991 40 24.999999999999996 11.999999999999998 5.0000000000000009 9.9999999999999982 12 4.9999999999999956 6.9999999999999991 8.9999999999999982 20 6.0000000000000009 14 14.000000000000002 6.9999999999999991 11.999999999999998 4.9999999999999991 10 11 13.999999999999998 9.9999999999999982 15.000000000000005 5.9999999999999991 11.999999999999998 6.0000000000000027 4.9999999999999991 8.9999999999999982 17 6 6.9999999999999982 45 5.9999999999999991 13.999999999999998 10.999999999999998 10 11 19 13 15.000000000000002 9.9999999999999982 11.999999999999998 19.999999999999996 28 11.000000000000002 13.999999999999998 6.0000000000000009 8.9999999999999911 14 21 8 10 8.0000000000000018 7.9999999999999991 58 5.9999999999999991 11 4.9999999999999973 15.999999999999998 8 10 14.999999999999998 6.9999999999999991 5.0000000000000009 14 8.9999999999999982 15.999999999999998 12 15.999999999999998 18 15 49 6.0000000000000027 20 33 21.000000000000007 4.9999999999999991 21 9.9999999999999982 4.9999999999999991 4.9999999999999991 27 21 5.9999999999999991 52 59 12 12.999999999999998 46 28 73 18 9.9999999999999982 11.000000000000002 4.9999999999999991 121 19.000000000000004 11 5.0000000000000027 15.000000000000002 6.9999999999999991 9 14.000000000000002 13.999999999999998 76 40 11.999999999999998 15.999999999999998 12.999999999999998 27 34 12.999999999999998 30 6.9999999999999991 15.999999999999998 14.999999999999998 166 15.999999999999998 15.999999999999998 10.999999999999991 15.999999999999988 22.000000000000025 51 42
leaf_count=12 12 13 12 5 15 15 88 6 60 21 12 15 13 86 145 36 19 8 12 21 54 22 6 7 7 10 21 12 6 8 13 27 20 34 13 5 20 16 29 22 15 14 5 19 6 24 15 22 16 6 5 14 39 6 31 7 8 13 8 11 10 25 18 13 23 11 14 27 11 9 873 10 30 13 269 14 8 14 8 10 8 11 8 15 42 6 12 14 5 20 12 10 10 15 15 7 11 13 11 9 29 5 13 19 30 28 8 6 8 18 10 14 39 10 8 11 17 17 11 6 66 14 5 11 20 15 9 7 12 5 40 25 12 5 10 12 5 7 9 20 6 14 14 7 12 5 10 11 14 10 15 6 12 6 5 9 17 6 7 45 6 14 11 10 11 19 13 15 10 12 20 28 11 14 6 9 14 21 8 10 8 8 58 6 11 5 16 8 10 15 7 5 14 9 16 12 16 18 15 49 6 20 33 21 5 21 10 5 5 27 21 6 52 59 12 13 46 28 73 18 10 11 5 121 19 11 5 15 7 9 14 14 76 40 12 16 13 27 34 13 30 7 16 15 166 16 16 11 16 22 51 42
internal_value=0 -0.0250754 0.0160604 0.00573734 -0.0117992 0.0116185 -0.0200872 -0.0103767 -0.0175217 0.0201138 -0.00582739 -0.0141428 -0.00826628 -0.0230323 -0.0191135 -0.00550404 0.00437396 0.02248 0.0196531 0.0116298 0.0176869 -0.0167633 -0.0134915 0.0124775 0.0121638 0.00157551 0.00378683 -0.0014853 0.00649284 0.0115913 -0.0244115 -0.0256968 0.0048028 0.00312932 0.0049754 -0.0038376 0.011611 -0.0178441 -0.00945171 -0.00951175 0.0182017 -0.0052512 0.0189946 -0.0222589 0.0132669 0.0171942 -0.00320405 0.0145946 0.0085347 0.0175998 0.0109187 0.0226476 0.00982985 0.0223979 0.0207527 0.00993186 0.0159468 0.00441897 -0.0251535 -0.00450867 -0.0014998 0.00145999 0.0133008 -0.00823067 -0.00923511 0.00773119 -0.00619544 0.0208615 0.000709966 -0.016389 -0.0345125 -0.0293614 -0.0314211 -0.000761918 -0.0338699 -0.0176897 0.0253118 0.0208714 0.0247517 0.0210385 -0.00343142 -0.0139326 0.0043632 -0.0321299 -0.0122564 -0.0225552 0.0104066 -0.00355233 0.0169901 -0.0185836 -0.00102913 -0.0166819 -0.00117085 0.00319553 0.00826047 -0.00582904 -0.0178568 0.015326 -0.00146767 0.0221061 0.0193756 0.0203125 0.00943184 -0.00829699 -0.0241083 0.0259734 0.00310961 0.0231892 -0.00437063 0.0184922 0.00415541 0.0273902 0.0252976 0.0158872 -0.000349822 0.0232132 0.00143184 0.0230356 0.0137511 0.0231899 0.0272542 0.0130216 0.0305382 0.00283515 -0.031824 -0.0241071 -0.0045711 0.0154042 0.0041579 0.0279694 0.0221184 0.0231535 0.0126404 0.0277161 0.0324004 0.013488 0.0262359 0.018975 0.00525755 0.0240372 0.0204549 0.0219467 0.00957636 -0.0165968 0.024843 0.0264776 0.0122593 -0.00253052 0.0240762 0.0132138 0.0220608 0.0178955 0.0180433 0.0110037 -0.0326389 -0.0147963 0.0276207 -0.0246701 -0.0102313 -0.03071 -0.0194743 0.0298864 0.0271024 0.0231423 0.0126814 0.0254807 0.0110721 0.0222483 0.033717 0.0284812 0.0236001 0.0296053 0.0324955 0.0271599 0.0277968 0.0256685 0.0123447 0.0276666 0.0189921 0.000681339 0.0286193 0.0182506 0.0297892 0.0253628 0.0278093 0.0272352 0.0255977 -0.00410844 0.0276986 0.024633 0.0155974 0.0229567 0.0104452 0.0331193 0.0317424 0.0287091 0.0288433 0.020094 0.028529 0.0287121 0.0251452 0.0154362 0.0302949 0.0194645 0.0129262 0.0279157 0.0228673 -0.00151571 0.0297358 0.0263515 0.0299168 0.0206476 0.0341053 0.0343591 0.0256575 0.033435 0.0301292 0.0234468 0.0334162 0.0287268 0.0247644 0.0200629 0.0330361 0.0308388 0.031109 0.0281607 0.034422 0.0304964 0.0239749 0.0281133 0.0326544 0.0345035 0.035295 0.0319412 0.0244409 0.0147788 0.0310508 0.0293995 0.0323473 0.0271583 0.0300382 0.0235923 0.0295578 0.0345061 0.0337994 0.0274081 0.0292685 0.0272576 0.0250451 0.0292258 0.0349511 0.0363009
internal_weight=0 2275 3427 1314 330 984 248 160 128 472 42 1054 483 152 571 160 124 2113 1341 314 253 34 61 31 105 40 512 331 166 141 411 398 500 467 447 192 255 119 85 165 32 143 73 25 82 76 30 133 101 85 37 430 74 59 79 48 235 72 48 19 128 118 56 31 62 39 28 46 19 158 1221 348 338 25 313 44 356 230 216 163 18 26 15 121 131 60 18 71 30 41 21 35 20 54 48 33 26 30 17 1027 602 593 124 62 43 425 20 469 14 41 23 772 582 119 37 82 28 219 76 65 208 39 169 16 240 95 24 27 19 143 89 68 32 463 176 17 84 32 16 455 230 225 50 21 287 254 33 21 145 37 79 64 44 32 74 14 31 26 13 71 26 53 405 26 16 175 19 27 32 33 58 59 36 62 108 94 20 394 39 18 355 36 319 135 25 156 137 13 225 128 62 55 19 66 97 27 129 26 29 124 75 26 49 46 25 249 66 15 183 111 106 33 73 81 22 153 87 41 126 53 39 29 184 126 48 24 159 46 22 21 27 42 149 73 33 21 103 87 74 40 51 21 36 54 190 24 74 58 49 38 72 57
internal_count=5702 2275 3427 1314 330 984 248 160 128 472 42 1054 483 152 571 160 124 2113 1341 314 253 34 61 31 105 40 512 331 166 141 411 398 500 467 447 192 255 119 85 165 32 143 73 25 82 76 30 133 101 85 37 430 74 59 79 48 235 72 48 19 128 118 56 31 62 39 28 46 19 158 1221 348 338 25 313 44 356 230 216 163 18 26 15 121 131 60 18 71 30 41 21 35 20 54 48 33 26 30 17 1027 602 593 124 62 43 425 20 469 14 41 23 772 582 119 37 82 28 219 76 65 208 39 169 16 240 95 24 27 19 143 89 68 32 463 176 17 84 32 16 455 230 225 50 21 287 254 33 21 145 37 79 64 44 32 74 14 31 26 13 71 26 53 405 26 16 175 19 27 32 33 58 59 36 62 108 94 20 394 39 18 355 36 319 135 25 156 137 13 225 128 62 55 19 66 97 27 129 26 29 124 75 26 49 46 25 249 66 15 183 111 106 33 73 81 22 153 87 41 126 53 39 29 184 126 48 24 159 46 22 21 27 42 149 73 33 21 103 87 74 40 51 21 36 54 190 24 74 58 49 38 72 57
is_linear=0
shrinkage=0.1


Tree=4
num_leaves=253
num_cat=0
split_feature=16 16 16 7 14 14 16 1 0 14 2 14 16 14 14 16 14 14 14 14 14 14 14 0 14 14 14 14 0 14 14 16 16 14 14 14 14 4 14 16 14 16 8 16 16 5 14 14 14 7 1 14 16 16 16 14 16 14 6 16 14 0 14 14 6 14 14 14 16 1 14 14 16 16 14 14 14 14 16 16 4 16 2 14 14 14 14 16 14 4 14 1 14 6 14 14 14 4 16 16 14 14 8 16 0 1 14 16 16 6 14 14 7 14 4 8 0 16 4 5 14 14 16 14 16 14 14 14 0 16 14 14 14 16 16 14 14 14 16 6 8 1 16 14 16 16 5 16 0 14 16 14 14 16 2 16 4 7 14 14 14 14 14 16 14 1 14 14 7 14 14 14 16 14 6 14 16 0 14 16 5 14 14 14 14 1 14 14 7 0 4 5 4 16 0 14 6 2 8 14 14 4 8 14 14 14 14 7 14 14 14 1 14 14 14 14 14 14 0 14 14 8 0 16 16 14 16 14 14 14 0 6 14 14 16 14 14 14 14 14 14 14 1 4 14 0 14 0 16 14 14 16
